SNNS network definition file V1.4-3D
generated at Fri Oct 22 17:27:02 1999

network name : SNNS_FF_NET
source files :
no. of units : 379
no. of connections : 10470
no. of unit types : 0
no. of site types : 0


learning function : Std_Backpropagation
update function   : Topological_Order


unit default section :

act      | bias     | st | subnet | layer | act func     | out func
---------|----------|----|--------|-------|--------------|-------------
 0.00000 |  0.00000 | h  |      0 |     1 | Act_Logistic | Out_Identity 
---------|----------|----|--------|-------|--------------|-------------


unit definition section :

no. | typeName | unitName | act      | bias     | st | position    | act func    | out func | sites
----|----------|----------|----------|----------|----|-------------|-------------|----------|-------
  1 |          | unit     |  0.00000 |  0.00000 | i  |   2,  2,19112 | Act_Elliott |          | 
  2 |          | unit     |  0.00000 |  0.00000 | i  |   3,  2,19112 | Act_Elliott |          | 
  3 |          | unit     |  0.00000 |  0.00000 | i  |   4,  2,19112 | Act_Elliott |          | 
  4 |          | unit     |  0.00000 |  0.00000 | i  |   5,  2,19112 | Act_Elliott |          | 
  5 |          | unit     |  0.00000 |  0.00000 | i  |   6,  2,19112 | Act_Elliott |          | 
  6 |          | unit     |  0.00000 |  0.00000 | i  |   7,  2,19112 | Act_Elliott |          | 
  7 |          | unit     |  0.00000 |  0.00000 | i  |   8,  2,19112 | Act_Elliott |          | 
  8 |          | unit     |  0.00000 |  0.00000 | i  |   9,  2,19112 | Act_Elliott |          | 
  9 |          | unit     |  0.00000 |  0.00000 | i  |  10,  2,19112 | Act_Elliott |          | 
 10 |          | unit     |  0.00000 |  0.00000 | i  |  11,  2,19112 | Act_Elliott |          | 
 11 |          | unit     |  0.00000 |  0.00000 | i  |  12,  2,19112 | Act_Elliott |          | 
 12 |          | unit     |  0.00000 |  0.00000 | i  |  13,  2,19112 | Act_Elliott |          | 
 13 |          | unit     |  0.00000 |  0.00000 | i  |  14,  2,19112 | Act_Elliott |          | 
 14 |          | unit     |  0.00000 |  0.00000 | i  |  15,  2,19112 | Act_Elliott |          | 
 15 |          | unit     |  0.00000 |  0.00000 | i  |  16,  2,19112 | Act_Elliott |          | 
 16 |          | unit     |  0.00000 |  0.00000 | i  |  17,  2,19112 | Act_Elliott |          | 
 17 |          | unit     |  0.00000 |  0.00000 | i  |  18,  2,19112 | Act_Elliott |          | 
 18 |          | unit     |  0.00000 |  0.00000 | i  |  19,  2,19112 | Act_Elliott |          | 
 19 |          | unit     |  0.00000 |  0.00000 | i  |  20,  2,19112 | Act_Elliott |          | 
 20 |          | unit     |  0.00000 |  0.00000 | i  |  21,  2,19112 | Act_Elliott |          | 
 21 |          | unit     |  0.00000 |  0.00000 | i  |  22,  2,19112 | Act_Elliott |          | 
 22 |          | unit     |  0.00000 |  0.00000 | i  |  23,  2,19112 | Act_Elliott |          | 
 23 |          | unit     |  0.00000 |  0.00000 | i  |  24,  2,19112 | Act_Elliott |          | 
 24 |          | unit     |  0.00000 |  0.00000 | i  |  25,  2,19112 | Act_Elliott |          | 
 25 |          | unit     |  0.00000 |  0.00000 | i  |  26,  2,19112 | Act_Elliott |          | 
 26 |          | unit     |  0.00000 |  0.00000 | i  |  27,  2,19112 | Act_Elliott |          | 
 27 |          | unit     |  0.00000 |  0.00000 | i  |  28,  2,19112 | Act_Elliott |          | 
 28 |          | unit     |  0.00000 |  0.00000 | i  |  29,  2,19112 | Act_Elliott |          | 
 29 |          | unit     |  0.00000 |  0.00000 | i  |  30,  2,19112 | Act_Elliott |          | 
 30 |          | unit     |  0.00000 |  0.00000 | i  |  31,  2,19112 | Act_Elliott |          | 
 31 |          | unit     |  0.00000 |  0.00000 | i  |  32,  2,19112 | Act_Elliott |          | 
 32 |          | unit     |  0.00000 |  0.00000 | i  |  33,  2,19112 | Act_Elliott |          | 
 33 |          | unit     |  0.00000 |  0.00000 | i  |  34,  2,19112 | Act_Elliott |          | 
 34 |          | unit     |  0.00000 |  0.00000 | i  |  35,  2,19112 | Act_Elliott |          | 
 35 |          | unit     |  0.00000 |  0.00000 | i  |  36,  2,19112 | Act_Elliott |          | 
 36 |          | unit     |  0.00000 |  0.00000 | i  |  37,  2,19112 | Act_Elliott |          | 
 37 |          | unit     |  0.00000 |  0.00000 | i  |  38,  2,19112 | Act_Elliott |          | 
 38 |          | unit     |  0.00000 |  0.00000 | i  |  39,  2,19112 | Act_Elliott |          | 
 39 |          | unit     |  0.00000 |  0.00000 | i  |  40,  2,19112 | Act_Elliott |          | 
 40 |          | unit     |  0.00000 |  0.00000 | i  |  41,  2,19112 | Act_Elliott |          | 
 41 |          | unit     |  0.00000 |  0.00000 | i  |  42,  2,19112 | Act_Elliott |          | 
 42 |          | unit     |  0.00000 |  0.00000 | i  |  43,  2,19112 | Act_Elliott |          | 
 43 |          | unit     |  0.00000 |  0.00000 | i  |  44,  2,19112 | Act_Elliott |          | 
 44 |          | unit     |  0.00000 |  0.00000 | i  |  45,  2,19112 | Act_Elliott |          | 
 45 |          | unit     |  0.00000 |  0.00000 | i  |  46,  2,19112 | Act_Elliott |          | 
 46 |          | unit     |  0.00000 |  0.00000 | i  |  47,  2,19112 | Act_Elliott |          | 
 47 |          | unit     |  0.00000 |  0.00000 | i  |  48,  2,19112 | Act_Elliott |          | 
 48 |          | unit     |  0.00000 |  0.00000 | i  |  49,  2,19112 | Act_Elliott |          | 
 49 |          | unit     |  0.00000 |  0.00000 | i  |  50,  2,19112 | Act_Elliott |          | 
 50 |          | unit     |  0.00000 |  0.00000 | i  |  51,  2,19112 | Act_Elliott |          | 
 51 |          | unit     |  0.00000 |  0.00000 | i  |  52,  2,19112 | Act_Elliott |          | 
 52 |          | unit     |  0.00000 |  0.00000 | i  |  53,  2,19112 | Act_Elliott |          | 
 53 |          | unit     |  0.00000 |  0.00000 | i  |  54,  2,19112 | Act_Elliott |          | 
 54 |          | unit     |  0.00000 |  0.00000 | i  |  55,  2,19112 | Act_Elliott |          | 
 55 |          | unit     |  0.00000 |  0.00000 | i  |  56,  2,19112 | Act_Elliott |          | 
 56 |          | unit     |  0.00000 |  0.00000 | i  |  57,  2,19112 | Act_Elliott |          | 
 57 |          | unit     |  0.00000 |  0.00000 | i  |  58,  2,19112 | Act_Elliott |          | 
 58 |          | unit     |  0.00000 |  0.00000 | i  |  59,  2,19112 | Act_Elliott |          | 
 59 |          | unit     |  0.00000 |  0.00000 | i  |  60,  2,19112 | Act_Elliott |          | 
 60 |          | unit     |  0.00000 |  0.00000 | i  |  61,  2,19112 | Act_Elliott |          | 
 61 |          | unit     |  0.00000 |  0.00000 | i  |  62,  2,19112 | Act_Elliott |          | 
 62 |          | unit     |  0.00000 |  0.00000 | i  |  63,  2,19112 | Act_Elliott |          | 
 63 |          | unit     |  0.00000 |  0.00000 | i  |  64,  2,19112 | Act_Elliott |          | 
 64 |          | unit     |  0.00000 |  0.00000 | i  |  65,  2,19112 | Act_Elliott |          | 
 65 |          | unit     |  0.00000 |  0.00000 | i  |  66,  2,19112 | Act_Elliott |          | 
 66 |          | unit     |  0.00000 |  0.00000 | i  |  67,  2,19112 | Act_Elliott |          | 
 67 |          | unit     |  0.00000 |  0.00000 | i  |  68,  2,19112 | Act_Elliott |          | 
 68 |          | unit     |  0.00000 |  0.00000 | i  |  69,  2,19112 | Act_Elliott |          | 
 69 |          | unit     |  0.00000 |  0.00000 | i  |  70,  2,19112 | Act_Elliott |          | 
 70 |          | unit     |  0.00000 |  0.00000 | i  |  71,  2,19112 | Act_Elliott |          | 
 71 |          | unit     |  0.00000 |  0.00000 | i  |  72,  2,19112 | Act_Elliott |          | 
 72 |          | unit     |  0.00000 |  0.00000 | i  |  73,  2,19112 | Act_Elliott |          | 
 73 |          | unit     |  0.00000 |  0.00000 | i  |  74,  2,19112 | Act_Elliott |          | 
 74 |          | unit     |  0.00000 |  0.00000 | i  |  75,  2,19112 | Act_Elliott |          | 
 75 |          | unit     |  0.00000 |  0.00000 | i  |  76,  2,19112 | Act_Elliott |          | 
 76 |          | unit     |  0.00000 |  0.00000 | i  |  77,  2,19112 | Act_Elliott |          | 
 77 |          | unit     |  0.00000 |  0.00000 | i  |  78,  2,19112 | Act_Elliott |          | 
 78 |          | unit     |  0.00000 |  0.00000 | i  |  79,  2,19112 | Act_Elliott |          | 
 79 |          | unit     |  0.00000 |  0.00000 | i  |  80,  2,19112 | Act_Elliott |          | 
 80 |          | unit     |  0.00000 |  0.00000 | i  |  81,  2,19112 | Act_Elliott |          | 
 81 |          | unit     |  0.00000 |  0.00000 | i  |  82,  2,19112 | Act_Elliott |          | 
 82 |          | unit     |  0.00000 |  0.00000 | i  |  83,  2,19112 | Act_Elliott |          | 
 83 |          | unit     |  0.00000 |  0.00000 | i  |  84,  2,19112 | Act_Elliott |          | 
 84 |          | unit     |  0.00000 |  0.00000 | i  |  85,  2,19112 | Act_Elliott |          | 
 85 |          | unit     |  0.00000 |  0.00000 | i  |  86,  2,19112 | Act_Elliott |          | 
 86 |          | unit     |  0.00000 |  0.00000 | i  |  87,  2,19112 | Act_Elliott |          | 
 87 |          | unit     |  0.00000 |  0.00000 | i  |  88,  2,19112 | Act_Elliott |          | 
 88 |          | unit     |  0.00000 |  0.00000 | i  |  89,  2,19112 | Act_Elliott |          | 
 89 |          | unit     |  0.00000 |  0.00000 | i  |  90,  2,19112 | Act_Elliott |          | 
 90 |          | unit     |  0.00000 |  0.00000 | i  |  91,  2,19112 | Act_Elliott |          | 
 91 |          | unit     |  0.00000 |  0.00000 | i  |  92,  2,19112 | Act_Elliott |          | 
 92 |          | unit     |  0.00000 |  0.00000 | i  |  93,  2,19112 | Act_Elliott |          | 
 93 |          | unit     |  0.00000 |  0.00000 | i  |  94,  2,19112 | Act_Elliott |          | 
 94 |          | unit     |  0.00000 |  0.00000 | i  |  95,  2,19112 | Act_Elliott |          | 
 95 |          | unit     |  0.00000 |  0.00000 | i  |  96,  2,19112 | Act_Elliott |          | 
 96 |          | unit     |  0.00000 |  0.00000 | i  |  97,  2,19112 | Act_Elliott |          | 
 97 |          | unit     |  0.00000 |  0.00000 | i  |  98,  2,19112 | Act_Elliott |          | 
 98 |          | unit     |  0.00000 |  0.00000 | i  |  99,  2,19112 | Act_Elliott |          | 
 99 |          | unit     |  0.00000 |  0.00000 | i  | 100,  2,19112 | Act_Elliott |          | 
100 |          | unit     |  0.00000 |  0.00000 | i  | 101,  2,19112 | Act_Elliott |          | 
101 |          | unit     |  0.00000 |  0.00000 | i  | 102,  2,19112 | Act_Elliott |          | 
102 |          | unit     |  0.00000 |  0.00000 | i  | 103,  2,19112 | Act_Elliott |          | 
103 |          | unit     |  0.00000 |  0.00000 | i  | 104,  2,19112 | Act_Elliott |          | 
104 |          | unit     |  0.00000 |  0.00000 | i  | 105,  2,19112 | Act_Elliott |          | 
105 |          | unit     |  0.00000 |  0.00000 | i  | 106,  2,19112 | Act_Elliott |          | 
106 |          | unit     |  0.00000 |  0.00000 | i  | 107,  2,19112 | Act_Elliott |          | 
107 |          | unit     |  0.00000 |  0.00000 | i  | 108,  2,19112 | Act_Elliott |          | 
108 |          | unit     |  0.00000 |  0.00000 | i  | 109,  2,19112 | Act_Elliott |          | 
109 |          | unit     |  0.00000 |  0.00000 | i  | 110,  2,19112 | Act_Elliott |          | 
110 |          | unit     |  0.00000 |  0.00000 | i  | 111,  2,19112 | Act_Elliott |          | 
111 |          | unit     |  0.00000 |  0.00000 | i  | 112,  2,19112 | Act_Elliott |          | 
112 |          | unit     |  0.00000 |  0.00000 | i  | 113,  2,19112 | Act_Elliott |          | 
113 |          | unit     |  0.00000 |  0.00000 | i  | 114,  2,19112 | Act_Elliott |          | 
114 |          | unit     |  0.00000 |  0.00000 | i  | 115,  2,19112 | Act_Elliott |          | 
115 |          | unit     |  0.00000 |  0.00000 | i  | 116,  2,19112 | Act_Elliott |          | 
116 |          | unit     |  0.00000 |  0.00000 | i  | 117,  2,19112 | Act_Elliott |          | 
117 |          | unit     |  0.00000 |  0.00000 | i  | 118,  2,19112 | Act_Elliott |          | 
118 |          | unit     |  0.00000 |  0.00000 | i  | 119,  2,19112 | Act_Elliott |          | 
119 |          | unit     |  0.00000 |  0.00000 | i  | 120,  2,19112 | Act_Elliott |          | 
120 |          | unit     |  0.00000 |  0.00000 | i  | 121,  2,19112 | Act_Elliott |          | 
121 |          | unit     |  0.00000 |  0.00000 | i  | 122,  2,19112 | Act_Elliott |          | 
122 |          | unit     |  0.00000 |  0.00000 | i  | 123,  2,19112 | Act_Elliott |          | 
123 |          | unit     |  0.00000 |  0.00000 | i  | 124,  2,19112 | Act_Elliott |          | 
124 |          | unit     |  0.00000 |  0.00000 | i  | 125,  2,19112 | Act_Elliott |          | 
125 |          | unit     |  0.00000 |  0.00000 | i  | 126,  2,19112 | Act_Elliott |          | 
126 |          | unit     |  0.00000 |  0.00000 | i  | 127,  2,19112 | Act_Elliott |          | 
127 |          | unit     |  0.00000 |  0.00000 | i  | 128,  2,19112 | Act_Elliott |          | 
128 |          | unit     |  0.00000 |  0.00000 | i  | 129,  2,19112 | Act_Elliott |          | 
129 |          | unit     |  0.00000 |  0.00000 | i  | 130,  2,19112 | Act_Elliott |          | 
130 |          | unit     |  0.00000 |  0.00000 | i  | 131,  2,19112 | Act_Elliott |          | 
131 |          | unit     |  0.00000 |  0.00000 | i  | 132,  2,19112 | Act_Elliott |          | 
132 |          | unit     |  0.00000 |  0.00000 | i  | 133,  2,19112 | Act_Elliott |          | 
133 |          | unit     |  0.00000 |  0.00000 | i  | 134,  2,19112 | Act_Elliott |          | 
134 |          | unit     |  0.00000 |  0.00000 | i  | 135,  2,19112 | Act_Elliott |          | 
135 |          | unit     |  0.00000 |  0.00000 | i  | 136,  2,19112 | Act_Elliott |          | 
136 |          | unit     |  0.00000 |  0.00000 | i  | 137,  2,19112 | Act_Elliott |          | 
137 |          | unit     |  0.00000 |  0.00000 | i  | 138,  2,19112 | Act_Elliott |          | 
138 |          | unit     |  0.00000 |  0.00000 | i  | 139,  2,19112 | Act_Elliott |          | 
139 |          | unit     |  0.00000 |  0.00000 | i  | 140,  2,19112 | Act_Elliott |          | 
140 |          | unit     |  0.00000 |  0.00000 | i  | 141,  2,19112 | Act_Elliott |          | 
141 |          | unit     |  0.00000 |  0.00000 | i  | 142,  2,19112 | Act_Elliott |          | 
142 |          | unit     |  0.00000 |  0.00000 | i  | 143,  2,19112 | Act_Elliott |          | 
143 |          | unit     |  0.00000 |  0.00000 | i  | 144,  2,19112 | Act_Elliott |          | 
144 |          | unit     |  0.00000 |  0.00000 | i  | 145,  2,19112 | Act_Elliott |          | 
145 |          | unit     |  0.00000 |  0.00000 | i  | 146,  2,19112 | Act_Elliott |          | 
146 |          | unit     |  0.00000 |  0.00000 | i  | 147,  2,19112 | Act_Elliott |          | 
147 |          | unit     |  0.00000 |  0.00000 | i  | 148,  2,19112 | Act_Elliott |          | 
148 |          | unit     |  0.00000 |  0.00000 | i  | 149,  2,19112 | Act_Elliott |          | 
149 |          | unit     |  0.00000 |  0.00000 | i  | 150,  2,19112 | Act_Elliott |          | 
150 |          | unit     |  0.00000 |  0.00000 | i  | 151,  2,19112 | Act_Elliott |          | 
151 |          | unit     |  0.00000 |  0.00000 | i  | 152,  2,19112 | Act_Elliott |          | 
152 |          | unit     |  0.00000 |  0.00000 | i  | 153,  2,19112 | Act_Elliott |          | 
153 |          | unit     |  0.00000 |  0.00000 | i  | 154,  2,19112 | Act_Elliott |          | 
154 |          | unit     |  0.00000 |  0.00000 | i  | 155,  2,19112 | Act_Elliott |          | 
155 |          | unit     |  0.00000 |  0.00000 | i  | 156,  2,19112 | Act_Elliott |          | 
156 |          | unit     |  0.00000 |  0.00000 | i  | 157,  2,19112 | Act_Elliott |          | 
157 |          | unit     |  0.00000 |  0.00000 | i  | 158,  2,19112 | Act_Elliott |          | 
158 |          | unit     |  0.00000 |  0.00000 | i  | 159,  2,19112 | Act_Elliott |          | 
159 |          | unit     |  0.00000 |  0.00000 | i  | 160,  2,19112 | Act_Elliott |          | 
160 |          | unit     |  0.00000 |  0.00000 | i  | 161,  2,19112 | Act_Elliott |          | 
161 |          | unit     |  0.00000 |  0.00000 | i  | 162,  2,19112 | Act_Elliott |          | 
162 |          | unit     |  0.00000 |  0.00000 | i  | 163,  2,19112 | Act_Elliott |          | 
163 |          | unit     |  0.00000 |  0.00000 | i  | 164,  2,19112 | Act_Elliott |          | 
164 |          | unit     |  0.00000 |  0.00000 | i  | 165,  2,19112 | Act_Elliott |          | 
165 |          | unit     |  0.00000 |  0.00000 | i  | 166,  2,19112 | Act_Elliott |          | 
166 |          | unit     |  0.00000 |  0.00000 | i  | 167,  2,19112 | Act_Elliott |          | 
167 |          | unit     |  0.00000 |  0.00000 | i  | 168,  2,19112 | Act_Elliott |          | 
168 |          | unit     |  0.00000 |  0.00000 | i  | 169,  2,19112 | Act_Elliott |          | 
169 |          | unit     |  0.00000 |  0.00000 | i  | 170,  2,19112 | Act_Elliott |          | 
170 |          | unit     |  0.00000 |  0.00000 | i  | 171,  2,19112 | Act_Elliott |          | 
171 |          | unit     |  0.00000 |  0.00000 | i  | 172,  2,19112 | Act_Elliott |          | 
172 |          | unit     |  0.00000 |  0.00000 | i  | 173,  2,19112 | Act_Elliott |          | 
173 |          | unit     |  0.00000 |  0.00000 | i  | 174,  2,19112 | Act_Elliott |          | 
174 |          | unit     |  0.00000 |  0.00000 | i  |   2,  3,19112 | Act_Elliott |          | 
175 |          | unit     |  0.00000 |  0.00000 | i  |   3,  3,19112 | Act_Elliott |          | 
176 |          | unit     |  0.00000 |  0.00000 | i  |   4,  3,19112 | Act_Elliott |          | 
177 |          | unit     |  0.00000 |  0.00000 | i  |   5,  3,19112 | Act_Elliott |          | 
178 |          | unit     |  0.00000 |  0.00000 | i  |   6,  3,19112 | Act_Elliott |          | 
179 |          | unit     |  0.00000 |  0.00000 | i  |   7,  3,19112 | Act_Elliott |          | 
180 |          | unit     |  0.00000 |  0.00000 | i  |   8,  3,19112 | Act_Elliott |          | 
181 |          | unit     |  0.00000 |  0.00000 | i  |   9,  3,19112 | Act_Elliott |          | 
182 |          | unit     |  0.00000 |  0.00000 | i  |  10,  3,19112 | Act_Elliott |          | 
183 |          | unit     |  0.00000 |  0.00000 | i  |  11,  3,19112 | Act_Elliott |          | 
184 |          | unit     |  0.00000 |  0.00000 | i  |  12,  3,19112 | Act_Elliott |          | 
185 |          | unit     |  0.00000 |  0.00000 | i  |  13,  3,19112 | Act_Elliott |          | 
186 |          | unit     |  0.00000 |  0.00000 | i  |  14,  3,19112 | Act_Elliott |          | 
187 |          | unit     |  0.00000 |  0.00000 | i  |  15,  3,19112 | Act_Elliott |          | 
188 |          | unit     |  0.00000 |  0.00000 | i  |  16,  3,19112 | Act_Elliott |          | 
189 |          | unit     |  0.00000 |  0.00000 | i  |  17,  3,19112 | Act_Elliott |          | 
190 |          | unit     |  0.00000 |  0.00000 | i  |  18,  3,19112 | Act_Elliott |          | 
191 |          | unit     |  0.00000 |  0.00000 | i  |  19,  3,19112 | Act_Elliott |          | 
192 |          | unit     |  0.00000 |  0.00000 | i  |  20,  3,19112 | Act_Elliott |          | 
193 |          | unit     |  0.00000 |  0.00000 | i  |  21,  3,19112 | Act_Elliott |          | 
194 |          | unit     |  0.00000 |  0.00000 | i  |  22,  3,19112 | Act_Elliott |          | 
195 |          | unit     |  0.00000 |  0.00000 | i  |  23,  3,19112 | Act_Elliott |          | 
196 |          | unit     |  0.00000 |  0.00000 | i  |  24,  3,19112 | Act_Elliott |          | 
197 |          | unit     |  0.00000 |  0.00000 | i  |  25,  3,19112 | Act_Elliott |          | 
198 |          | unit     |  0.00000 |  0.00000 | i  |  26,  3,19112 | Act_Elliott |          | 
199 |          | unit     |  0.00000 |  0.00000 | i  |  27,  3,19112 | Act_Elliott |          | 
200 |          | unit     |  0.00000 |  0.00000 | i  |  28,  3,19112 | Act_Elliott |          | 
201 |          | unit     |  0.00000 |  0.00000 | i  |  29,  3,19112 | Act_Elliott |          | 
202 |          | unit     |  0.00000 |  0.00000 | i  |  30,  3,19112 | Act_Elliott |          | 
203 |          | unit     |  0.00000 |  0.00000 | i  |  31,  3,19112 | Act_Elliott |          | 
204 |          | unit     |  0.00000 |  0.00000 | i  |  32,  3,19112 | Act_Elliott |          | 
205 |          | unit     |  0.00000 |  0.00000 | i  |  33,  3,19112 | Act_Elliott |          | 
206 |          | unit     |  0.00000 |  0.00000 | i  |  34,  3,19112 | Act_Elliott |          | 
207 |          | unit     |  0.00000 |  0.00000 | i  |  35,  3,19112 | Act_Elliott |          | 
208 |          | unit     |  0.00000 |  0.00000 | i  |  36,  3,19112 | Act_Elliott |          | 
209 |          | unit     |  0.00000 |  0.00000 | i  |  37,  3,19112 | Act_Elliott |          | 
210 |          | unit     |  0.00000 |  0.00000 | i  |  38,  3,19112 | Act_Elliott |          | 
211 |          | unit     |  0.00000 |  0.00000 | i  |  39,  3,19112 | Act_Elliott |          | 
212 |          | unit     |  0.00000 |  0.00000 | i  |  40,  3,19112 | Act_Elliott |          | 
213 |          | unit     |  0.00000 |  0.00000 | i  |  41,  3,19112 | Act_Elliott |          | 
214 |          | unit     |  0.00000 |  0.00000 | i  |  42,  3,19112 | Act_Elliott |          | 
215 |          | unit     |  0.00000 |  0.00000 | i  |  43,  3,19112 | Act_Elliott |          | 
216 |          | unit     |  0.00000 |  0.00000 | i  |  44,  3,19112 | Act_Elliott |          | 
217 |          | unit     |  0.00000 |  0.00000 | i  |  45,  3,19112 | Act_Elliott |          | 
218 |          | unit     |  0.00000 |  0.00000 | i  |  46,  3,19112 | Act_Elliott |          | 
219 |          | unit     |  0.00000 |  0.00000 | i  |  47,  3,19112 | Act_Elliott |          | 
220 |          | unit     |  0.00000 |  0.00000 | i  |  48,  3,19112 | Act_Elliott |          | 
221 |          | unit     |  0.00000 |  0.00000 | i  |  49,  3,19112 | Act_Elliott |          | 
222 |          | unit     |  0.00000 |  0.00000 | i  |  50,  3,19112 | Act_Elliott |          | 
223 |          | unit     |  0.00000 |  0.00000 | i  |  51,  3,19112 | Act_Elliott |          | 
224 |          | unit     |  0.00000 |  0.00000 | i  |  52,  3,19112 | Act_Elliott |          | 
225 |          | unit     |  0.00000 |  0.00000 | i  |  53,  3,19112 | Act_Elliott |          | 
226 |          | unit     |  0.00000 |  0.00000 | i  |  54,  3,19112 | Act_Elliott |          | 
227 |          | unit     |  0.00000 |  0.00000 | i  |  55,  3,19112 | Act_Elliott |          | 
228 |          | unit     |  0.00000 |  0.00000 | i  |  56,  3,19112 | Act_Elliott |          | 
229 |          | unit     |  0.00000 |  0.00000 | i  |  57,  3,19112 | Act_Elliott |          | 
230 |          | unit     |  0.00000 |  0.00000 | i  |  58,  3,19112 | Act_Elliott |          | 
231 |          | unit     |  0.00000 |  0.00000 | i  |  59,  3,19112 | Act_Elliott |          | 
232 |          | unit     |  0.00000 |  0.00000 | i  |  60,  3,19112 | Act_Elliott |          | 
233 |          | unit     |  0.00000 |  0.00000 | i  |  61,  3,19112 | Act_Elliott |          | 
234 |          | unit     |  0.00000 |  0.00000 | i  |  62,  3,19112 | Act_Elliott |          | 
235 |          | unit     |  0.00000 |  0.00000 | i  |  63,  3,19112 | Act_Elliott |          | 
236 |          | unit     |  0.00000 |  0.00000 | i  |  64,  3,19112 | Act_Elliott |          | 
237 |          | unit     |  0.00000 |  0.00000 | i  |  65,  3,19112 | Act_Elliott |          | 
238 |          | unit     |  0.00000 |  0.00000 | i  |  66,  3,19112 | Act_Elliott |          | 
239 |          | unit     |  0.00000 |  0.00000 | i  |  67,  3,19112 | Act_Elliott |          | 
240 |          | unit     |  0.00000 |  0.00000 | i  |  68,  3,19112 | Act_Elliott |          | 
241 |          | unit     |  0.00000 |  0.00000 | i  |  69,  3,19112 | Act_Elliott |          | 
242 |          | unit     |  0.00000 |  0.00000 | i  |  70,  3,19112 | Act_Elliott |          | 
243 |          | unit     |  0.00000 |  0.00000 | i  |  71,  3,19112 | Act_Elliott |          | 
244 |          | unit     |  0.00000 |  0.00000 | i  |  72,  3,19112 | Act_Elliott |          | 
245 |          | unit     |  0.00000 |  0.00000 | i  |  73,  3,19112 | Act_Elliott |          | 
246 |          | unit     |  0.00000 |  0.00000 | i  |  74,  3,19112 | Act_Elliott |          | 
247 |          | unit     |  0.00000 |  0.00000 | i  |  75,  3,19112 | Act_Elliott |          | 
248 |          | unit     |  0.00000 |  0.00000 | i  |  76,  3,19112 | Act_Elliott |          | 
249 |          | unit     |  0.00000 |  0.00000 | i  |  77,  3,19112 | Act_Elliott |          | 
250 |          | unit     |  0.00000 |  0.00000 | i  |  78,  3,19112 | Act_Elliott |          | 
251 |          | unit     |  0.00000 |  0.00000 | i  |  79,  3,19112 | Act_Elliott |          | 
252 |          | unit     |  0.00000 |  0.00000 | i  |  80,  3,19112 | Act_Elliott |          | 
253 |          | unit     |  0.00000 |  0.00000 | i  |  81,  3,19112 | Act_Elliott |          | 
254 |          | unit     |  0.00000 |  0.00000 | i  |  82,  3,19112 | Act_Elliott |          | 
255 |          | unit     |  0.00000 |  0.00000 | i  |  83,  3,19112 | Act_Elliott |          | 
256 |          | unit     |  0.00000 |  0.00000 | i  |  84,  3,19112 | Act_Elliott |          | 
257 |          | unit     |  0.00000 |  0.00000 | i  |  85,  3,19112 | Act_Elliott |          | 
258 |          | unit     |  0.00000 |  0.00000 | i  |  86,  3,19112 | Act_Elliott |          | 
259 |          | unit     |  0.00000 |  0.00000 | i  |  87,  3,19112 | Act_Elliott |          | 
260 |          | unit     |  0.00000 |  0.00000 | i  |  88,  3,19112 | Act_Elliott |          | 
261 |          | unit     |  0.00000 |  0.00000 | i  |  89,  3,19112 | Act_Elliott |          | 
262 |          | unit     |  0.00000 |  0.00000 | i  |  90,  3,19112 | Act_Elliott |          | 
263 |          | unit     |  0.00000 |  0.00000 | i  |  91,  3,19112 | Act_Elliott |          | 
264 |          | unit     |  0.00000 |  0.00000 | i  |  92,  3,19112 | Act_Elliott |          | 
265 |          | unit     |  0.00000 |  0.00000 | i  |  93,  3,19112 | Act_Elliott |          | 
266 |          | unit     |  0.00000 |  0.00000 | i  |  94,  3,19112 | Act_Elliott |          | 
267 |          | unit     |  0.00000 |  0.00000 | i  |  95,  3,19112 | Act_Elliott |          | 
268 |          | unit     |  0.00000 |  0.00000 | i  |  96,  3,19112 | Act_Elliott |          | 
269 |          | unit     |  0.00000 |  0.00000 | i  |  97,  3,19112 | Act_Elliott |          | 
270 |          | unit     |  0.00000 |  0.00000 | i  |  98,  3,19112 | Act_Elliott |          | 
271 |          | unit     |  0.00000 |  0.00000 | i  |  99,  3,19112 | Act_Elliott |          | 
272 |          | unit     |  0.00000 |  0.00000 | i  | 100,  3,19112 | Act_Elliott |          | 
273 |          | unit     |  0.00000 |  0.00000 | i  | 101,  3,19112 | Act_Elliott |          | 
274 |          | unit     |  0.00000 |  0.00000 | i  | 102,  3,19112 | Act_Elliott |          | 
275 |          | unit     |  0.00000 |  0.00000 | i  | 103,  3,19112 | Act_Elliott |          | 
276 |          | unit     |  0.00000 |  0.00000 | i  | 104,  3,19112 | Act_Elliott |          | 
277 |          | unit     |  0.00000 |  0.00000 | i  | 105,  3,19112 | Act_Elliott |          | 
278 |          | unit     |  0.00000 |  0.00000 | i  | 106,  3,19112 | Act_Elliott |          | 
279 |          | unit     |  0.00000 |  0.00000 | i  | 107,  3,19112 | Act_Elliott |          | 
280 |          | unit     |  0.00000 |  0.00000 | i  | 108,  3,19112 | Act_Elliott |          | 
281 |          | unit     |  0.00000 |  0.00000 | i  | 109,  3,19112 | Act_Elliott |          | 
282 |          | unit     |  0.00000 |  0.00000 | i  | 110,  3,19112 | Act_Elliott |          | 
283 |          | unit     |  0.00000 |  0.00000 | i  | 111,  3,19112 | Act_Elliott |          | 
284 |          | unit     |  0.00000 |  0.00000 | i  | 112,  3,19112 | Act_Elliott |          | 
285 |          | unit     |  0.00000 |  0.00000 | i  | 113,  3,19112 | Act_Elliott |          | 
286 |          | unit     |  0.00000 |  0.00000 | i  | 114,  3,19112 | Act_Elliott |          | 
287 |          | unit     |  0.00000 |  0.00000 | i  | 115,  3,19112 | Act_Elliott |          | 
288 |          | unit     |  0.00000 |  0.00000 | i  | 116,  3,19112 | Act_Elliott |          | 
289 |          | unit     |  0.00000 |  0.00000 | i  | 117,  3,19112 | Act_Elliott |          | 
290 |          | unit     |  0.00000 |  0.00000 | i  | 118,  3,19112 | Act_Elliott |          | 
291 |          | unit     |  0.00000 |  0.00000 | i  | 119,  3,19112 | Act_Elliott |          | 
292 |          | unit     |  0.00000 |  0.00000 | i  | 120,  3,19112 | Act_Elliott |          | 
293 |          | unit     |  0.00000 |  0.00000 | i  | 121,  3,19112 | Act_Elliott |          | 
294 |          | unit     |  0.00000 |  0.00000 | i  | 122,  3,19112 | Act_Elliott |          | 
295 |          | unit     |  0.00000 |  0.00000 | i  | 123,  3,19112 | Act_Elliott |          | 
296 |          | unit     |  0.00000 |  0.00000 | i  | 124,  3,19112 | Act_Elliott |          | 
297 |          | unit     |  0.00000 |  0.00000 | i  | 125,  3,19112 | Act_Elliott |          | 
298 |          | unit     |  0.00000 |  0.00000 | i  | 126,  3,19112 | Act_Elliott |          | 
299 |          | unit     |  0.00000 |  0.00000 | i  | 127,  3,19112 | Act_Elliott |          | 
300 |          | unit     |  0.00000 |  0.00000 | i  | 128,  3,19112 | Act_Elliott |          | 
301 |          | unit     |  0.00000 |  0.00000 | i  | 129,  3,19112 | Act_Elliott |          | 
302 |          | unit     |  0.00000 |  0.00000 | i  | 130,  3,19112 | Act_Elliott |          | 
303 |          | unit     |  0.00000 |  0.00000 | i  | 131,  3,19112 | Act_Elliott |          | 
304 |          | unit     |  0.00000 |  0.00000 | i  | 132,  3,19112 | Act_Elliott |          | 
305 |          | unit     |  0.00000 |  0.00000 | i  | 133,  3,19112 | Act_Elliott |          | 
306 |          | unit     |  0.00000 |  0.00000 | i  | 134,  3,19112 | Act_Elliott |          | 
307 |          | unit     |  0.00000 |  0.00000 | i  | 135,  3,19112 | Act_Elliott |          | 
308 |          | unit     |  0.00000 |  0.00000 | i  | 136,  3,19112 | Act_Elliott |          | 
309 |          | unit     |  0.00000 |  0.00000 | i  | 137,  3,19112 | Act_Elliott |          | 
310 |          | unit     |  0.00000 |  0.00000 | i  | 138,  3,19112 | Act_Elliott |          | 
311 |          | unit     |  0.00000 |  0.00000 | i  | 139,  3,19112 | Act_Elliott |          | 
312 |          | unit     |  0.00000 |  0.00000 | i  | 140,  3,19112 | Act_Elliott |          | 
313 |          | unit     |  0.00000 |  0.00000 | i  | 141,  3,19112 | Act_Elliott |          | 
314 |          | unit     |  0.00000 |  0.00000 | i  | 142,  3,19112 | Act_Elliott |          | 
315 |          | unit     |  0.00000 |  0.00000 | i  | 143,  3,19112 | Act_Elliott |          | 
316 |          | unit     |  0.00000 |  0.00000 | i  | 144,  3,19112 | Act_Elliott |          | 
317 |          | unit     |  0.00000 |  0.00000 | i  | 145,  3,19112 | Act_Elliott |          | 
318 |          | unit     |  0.00000 |  0.00000 | i  | 146,  3,19112 | Act_Elliott |          | 
319 |          | unit     |  0.00000 |  0.00000 | i  | 147,  3,19112 | Act_Elliott |          | 
320 |          | unit     |  0.00000 |  0.00000 | i  | 148,  3,19112 | Act_Elliott |          | 
321 |          | unit     |  0.00000 |  0.00000 | i  | 149,  3,19112 | Act_Elliott |          | 
322 |          | unit     |  0.00000 |  0.00000 | i  | 150,  3,19112 | Act_Elliott |          | 
323 |          | unit     |  0.00000 |  0.00000 | i  | 151,  3,19112 | Act_Elliott |          | 
324 |          | unit     |  0.00000 |  0.00000 | i  | 152,  3,19112 | Act_Elliott |          | 
325 |          | unit     |  0.00000 |  0.00000 | i  | 153,  3,19112 | Act_Elliott |          | 
326 |          | unit     |  0.00000 |  0.00000 | i  | 154,  3,19112 | Act_Elliott |          | 
327 |          | unit     |  0.00000 |  0.00000 | i  | 155,  3,19112 | Act_Elliott |          | 
328 |          | unit     |  0.00000 |  0.00000 | i  | 156,  3,19112 | Act_Elliott |          | 
329 |          | unit     |  0.00000 |  0.00000 | i  | 157,  3,19112 | Act_Elliott |          | 
330 |          | unit     |  0.00000 |  0.00000 | i  | 158,  3,19112 | Act_Elliott |          | 
331 |          | unit     |  0.00000 |  0.00000 | i  | 159,  3,19112 | Act_Elliott |          | 
332 |          | unit     |  0.00000 |  0.00000 | i  | 160,  3,19112 | Act_Elliott |          | 
333 |          | unit     |  0.00000 |  0.00000 | i  | 161,  3,19112 | Act_Elliott |          | 
334 |          | unit     |  0.00000 |  0.00000 | i  | 162,  3,19112 | Act_Elliott |          | 
335 |          | unit     |  0.00000 |  0.00000 | i  | 163,  3,19112 | Act_Elliott |          | 
336 |          | unit     |  0.00000 |  0.00000 | i  | 164,  3,19112 | Act_Elliott |          | 
337 |          | unit     |  0.00000 |  0.00000 | i  | 165,  3,19112 | Act_Elliott |          | 
338 |          | unit     |  0.00000 |  0.00000 | i  | 166,  3,19112 | Act_Elliott |          | 
339 |          | unit     |  0.00000 |  0.00000 | i  | 167,  3,19112 | Act_Elliott |          | 
340 |          | unit     |  0.00000 |  0.00000 | i  | 168,  3,19112 | Act_Elliott |          | 
341 |          | unit     |  0.00000 |  0.00000 | i  | 169,  3,19112 | Act_Elliott |          | 
342 |          | unit     |  0.00000 |  0.00000 | i  | 170,  3,19112 | Act_Elliott |          | 
343 |          | unit     |  0.00000 |  0.00000 | i  | 171,  3,19112 | Act_Elliott |          | 
344 |          | unit     |  0.00000 |  0.00000 | i  | 172,  3,19112 | Act_Elliott |          | 
345 |          | unit     |  0.00000 |  0.00000 | i  | 173,  3,19112 | Act_Elliott |          | 
346 |          | unit     |  0.00000 |  0.00000 | i  | 174,  3,19112 | Act_Elliott |          | 
347 |          | unit     |  0.00000 |  0.00000 | h  | 177,  2,19112 | Act_Elliott |          | 
348 |          | unit     |  0.00000 |  0.00000 | h  | 178,  2,19112 | Act_Elliott |          | 
349 |          | unit     |  0.00000 |  0.00000 | h  | 179,  2,19112 | Act_Elliott |          | 
350 |          | unit     |  0.00000 |  0.00000 | h  | 180,  2,19112 | Act_Elliott |          | 
351 |          | unit     |  0.00000 |  0.00000 | h  | 181,  2,19112 | Act_Elliott |          | 
352 |          | unit     |  0.00000 |  0.00000 | h  | 182,  2,19112 | Act_Elliott |          | 
353 |          | unit     |  0.00000 |  0.00000 | h  | 183,  2,19112 | Act_Elliott |          | 
354 |          | unit     |  0.00000 |  0.00000 | h  | 184,  2,19112 | Act_Elliott |          | 
355 |          | unit     |  0.00000 |  0.00000 | h  | 185,  2,19112 | Act_Elliott |          | 
356 |          | unit     |  0.00000 |  0.00000 | h  | 186,  2,19112 | Act_Elliott |          | 
357 |          | unit     |  0.00000 |  0.00000 | h  | 187,  2,19112 | Act_Elliott |          | 
358 |          | unit     |  0.00000 |  0.00000 | h  | 188,  2,19112 | Act_Elliott |          | 
359 |          | unit     |  0.00000 |  0.00000 | h  | 189,  2,19112 | Act_Elliott |          | 
360 |          | unit     |  0.00000 |  0.00000 | h  | 190,  2,19112 | Act_Elliott |          | 
361 |          | unit     |  0.00000 |  0.00000 | h  | 191,  2,19112 | Act_Elliott |          | 
362 |          | unit     |  0.00000 |  0.00000 | h  | 177,  3,19112 | Act_Elliott |          | 
363 |          | unit     |  0.00000 |  0.00000 | h  | 178,  3,19112 | Act_Elliott |          | 
364 |          | unit     |  0.00000 |  0.00000 | h  | 179,  3,19112 | Act_Elliott |          | 
365 |          | unit     |  0.00000 |  0.00000 | h  | 180,  3,19112 | Act_Elliott |          | 
366 |          | unit     |  0.00000 |  0.00000 | h  | 181,  3,19112 | Act_Elliott |          | 
367 |          | unit     |  0.00000 |  0.00000 | h  | 182,  3,19112 | Act_Elliott |          | 
368 |          | unit     |  0.00000 |  0.00000 | h  | 183,  3,19112 | Act_Elliott |          | 
369 |          | unit     |  0.00000 |  0.00000 | h  | 184,  3,19112 | Act_Elliott |          | 
370 |          | unit     |  0.00000 |  0.00000 | h  | 185,  3,19112 | Act_Elliott |          | 
371 |          | unit     |  0.00000 |  0.00000 | h  | 186,  3,19112 | Act_Elliott |          | 
372 |          | unit     |  0.00000 |  0.00000 | h  | 187,  3,19112 | Act_Elliott |          | 
373 |          | unit     |  0.00000 |  0.00000 | h  | 188,  3,19112 | Act_Elliott |          | 
374 |          | unit     |  0.00000 |  0.00000 | h  | 189,  3,19112 | Act_Elliott |          | 
375 |          | unit     |  0.00000 |  0.00000 | h  | 190,  3,19112 | Act_Elliott |          | 
376 |          | unit     |  0.00000 |  0.00000 | h  | 191,  3,19112 | Act_Elliott |          | 
377 |          | unit     |  0.00000 |  0.00000 | o  | 194,  2,19112 | Act_Elliott |          | 
378 |          | unit     |  0.00000 |  0.00000 | o  | 195,  2,19112 | Act_Elliott |          | 
379 |          | unit     |  0.00000 |  0.00000 | o  | 196,  2,19112 | Act_Elliott |          | 
----|----------|----------|----------|----------|----|-------------|-------------|----------|-------


connection definition section :

target | site | source:weight
-------|------|----------------------------------------------------------------------------------------------------------------
   347 |      | 346: 0.00000, 345: 0.00000, 344: 0.00000, 343: 0.00000, 342: 0.00000, 341: 0.00000, 340: 0.00000, 339: 0.00000,
                338: 0.00000, 337: 0.00000, 336: 0.00000, 335: 0.00000, 334: 0.00000, 333: 0.00000, 332: 0.00000, 331: 0.00000,
                330: 0.00000, 329: 0.00000, 328: 0.00000, 327: 0.00000, 326: 0.00000, 325: 0.00000, 324: 0.00000, 323: 0.00000,
                322: 0.00000, 321: 0.00000, 320: 0.00000, 319: 0.00000, 318: 0.00000, 317: 0.00000, 316: 0.00000, 315: 0.00000,
                314: 0.00000, 313: 0.00000, 312: 0.00000, 311: 0.00000, 310: 0.00000, 309: 0.00000, 308: 0.00000, 307: 0.00000,
                306: 0.00000, 305: 0.00000, 304: 0.00000, 303: 0.00000, 302: 0.00000, 301: 0.00000, 300: 0.00000, 299: 0.00000,
                298: 0.00000, 297: 0.00000, 296: 0.00000, 295: 0.00000, 294: 0.00000, 293: 0.00000, 292: 0.00000, 291: 0.00000,
                290: 0.00000, 289: 0.00000, 288: 0.00000, 287: 0.00000, 286: 0.00000, 285: 0.00000, 284: 0.00000, 283: 0.00000,
                282: 0.00000, 281: 0.00000, 280: 0.00000, 279: 0.00000, 278: 0.00000, 277: 0.00000, 276: 0.00000, 275: 0.00000,
                274: 0.00000, 273: 0.00000, 272: 0.00000, 271: 0.00000, 270: 0.00000, 269: 0.00000, 268: 0.00000, 267: 0.00000,
                266: 0.00000, 265: 0.00000, 264: 0.00000, 263: 0.00000, 262: 0.00000, 261: 0.00000, 260: 0.00000, 259: 0.00000,
                258: 0.00000, 257: 0.00000, 256: 0.00000, 255: 0.00000, 254: 0.00000, 253: 0.00000, 252: 0.00000, 251: 0.00000,
                250: 0.00000, 249: 0.00000, 248: 0.00000, 247: 0.00000, 246: 0.00000, 245: 0.00000, 244: 0.00000, 243: 0.00000,
                242: 0.00000, 241: 0.00000, 240: 0.00000, 239: 0.00000, 238: 0.00000, 237: 0.00000, 236: 0.00000, 235: 0.00000,
                234: 0.00000, 233: 0.00000, 232: 0.00000, 231: 0.00000, 230: 0.00000, 229: 0.00000, 228: 0.00000, 227: 0.00000,
                226: 0.00000, 225: 0.00000, 224: 0.00000, 223: 0.00000, 222: 0.00000, 221: 0.00000, 220: 0.00000, 219: 0.00000,
                218: 0.00000, 217: 0.00000, 216: 0.00000, 215: 0.00000, 214: 0.00000, 213: 0.00000, 212: 0.00000, 211: 0.00000,
                210: 0.00000, 209: 0.00000, 208: 0.00000, 207: 0.00000, 206: 0.00000, 205: 0.00000, 204: 0.00000, 203: 0.00000,
                202: 0.00000, 201: 0.00000, 200: 0.00000, 199: 0.00000, 198: 0.00000, 197: 0.00000, 196: 0.00000, 195: 0.00000,
                194: 0.00000, 193: 0.00000, 192: 0.00000, 191: 0.00000, 190: 0.00000, 189: 0.00000, 188: 0.00000, 187: 0.00000,
                186: 0.00000, 185: 0.00000, 184: 0.00000, 183: 0.00000, 182: 0.00000, 181: 0.00000, 180: 0.00000, 179: 0.00000,
                178: 0.00000, 177: 0.00000, 176: 0.00000, 175: 0.00000, 174: 0.00000, 173: 0.00000, 172: 0.00000, 171: 0.00000,
                170: 0.00000, 169: 0.00000, 168: 0.00000, 167: 0.00000, 166: 0.00000, 165: 0.00000, 164: 0.00000, 163: 0.00000,
                162: 0.00000, 161: 0.00000, 160: 0.00000, 159: 0.00000, 158: 0.00000, 157: 0.00000, 156: 0.00000, 155: 0.00000,
                154: 0.00000, 153: 0.00000, 152: 0.00000, 151: 0.00000, 150: 0.00000, 149: 0.00000, 148: 0.00000, 147: 0.00000,
                146: 0.00000, 145: 0.00000, 144: 0.00000, 143: 0.00000, 142: 0.00000, 141: 0.00000, 140: 0.00000, 139: 0.00000,
                138: 0.00000, 137: 0.00000, 136: 0.00000, 135: 0.00000, 134: 0.00000, 133: 0.00000, 132: 0.00000, 131: 0.00000,
                130: 0.00000, 129: 0.00000, 128: 0.00000, 127: 0.00000, 126: 0.00000, 125: 0.00000, 124: 0.00000, 123: 0.00000,
                122: 0.00000, 121: 0.00000, 120: 0.00000, 119: 0.00000, 118: 0.00000, 117: 0.00000, 116: 0.00000, 115: 0.00000,
                114: 0.00000, 113: 0.00000, 112: 0.00000, 111: 0.00000, 110: 0.00000, 109: 0.00000, 108: 0.00000, 107: 0.00000,
                106: 0.00000, 105: 0.00000, 104: 0.00000, 103: 0.00000, 102: 0.00000, 101: 0.00000, 100: 0.00000,  99: 0.00000,
                 98: 0.00000,  97: 0.00000,  96: 0.00000,  95: 0.00000,  94: 0.00000,  93: 0.00000,  92: 0.00000,  91: 0.00000,
                 90: 0.00000,  89: 0.00000,  88: 0.00000,  87: 0.00000,  86: 0.00000,  85: 0.00000,  84: 0.00000,  83: 0.00000,
                 82: 0.00000,  81: 0.00000,  80: 0.00000,  79: 0.00000,  78: 0.00000,  77: 0.00000,  76: 0.00000,  75: 0.00000,
                 74: 0.00000,  73: 0.00000,  72: 0.00000,  71: 0.00000,  70: 0.00000,  69: 0.00000,  68: 0.00000,  67: 0.00000,
                 66: 0.00000,  65: 0.00000,  64: 0.00000,  63: 0.00000,  62: 0.00000,  61: 0.00000,  60: 0.00000,  59: 0.00000,
                 58: 0.00000,  57: 0.00000,  56: 0.00000,  55: 0.00000,  54: 0.00000,  53: 0.00000,  52: 0.00000,  51: 0.00000,
                 50: 0.00000,  49: 0.00000,  48: 0.00000,  47: 0.00000,  46: 0.00000,  45: 0.00000,  44: 0.00000,  43: 0.00000,
                 42: 0.00000,  41: 0.00000,  40: 0.00000,  39: 0.00000,  38: 0.00000,  37: 0.00000,  36: 0.00000,  35: 0.00000,
                 34: 0.00000,  33: 0.00000,  32: 0.00000,  31: 0.00000,  30: 0.00000,  29: 0.00000,  28: 0.00000,  27: 0.00000,
                 26: 0.00000,  25: 0.00000,  24: 0.00000,  23: 0.00000,  22: 0.00000,  21: 0.00000,  20: 0.00000,  19: 0.00000,
                 18: 0.00000,  17: 0.00000,  16: 0.00000,  15: 0.00000,  14: 0.00000,  13: 0.00000,  12: 0.00000,  11: 0.00000,
                 10: 0.00000,   9: 0.00000,   8: 0.00000,   7: 0.00000,   6: 0.00000,   5: 0.00000,   4: 0.00000,   3: 0.00000,
                  2: 0.00000,   1: 0.00000
   348 |      | 346: 0.00000, 345: 0.00000, 344: 0.00000, 343: 0.00000, 342: 0.00000, 341: 0.00000, 340: 0.00000, 339: 0.00000,
                338: 0.00000, 337: 0.00000, 336: 0.00000, 335: 0.00000, 334: 0.00000, 333: 0.00000, 332: 0.00000, 331: 0.00000,
                330: 0.00000, 329: 0.00000, 328: 0.00000, 327: 0.00000, 326: 0.00000, 325: 0.00000, 324: 0.00000, 323: 0.00000,
                322: 0.00000, 321: 0.00000, 320: 0.00000, 319: 0.00000, 318: 0.00000, 317: 0.00000, 316: 0.00000, 315: 0.00000,
                314: 0.00000, 313: 0.00000, 312: 0.00000, 311: 0.00000, 310: 0.00000, 309: 0.00000, 308: 0.00000, 307: 0.00000,
                306: 0.00000, 305: 0.00000, 304: 0.00000, 303: 0.00000, 302: 0.00000, 301: 0.00000, 300: 0.00000, 299: 0.00000,
                298: 0.00000, 297: 0.00000, 296: 0.00000, 295: 0.00000, 294: 0.00000, 293: 0.00000, 292: 0.00000, 291: 0.00000,
                290: 0.00000, 289: 0.00000, 288: 0.00000, 287: 0.00000, 286: 0.00000, 285: 0.00000, 284: 0.00000, 283: 0.00000,
                282: 0.00000, 281: 0.00000, 280: 0.00000, 279: 0.00000, 278: 0.00000, 277: 0.00000, 276: 0.00000, 275: 0.00000,
                274: 0.00000, 273: 0.00000, 272: 0.00000, 271: 0.00000, 270: 0.00000, 269: 0.00000, 268: 0.00000, 267: 0.00000,
                266: 0.00000, 265: 0.00000, 264: 0.00000, 263: 0.00000, 262: 0.00000, 261: 0.00000, 260: 0.00000, 259: 0.00000,
                258: 0.00000, 257: 0.00000, 256: 0.00000, 255: 0.00000, 254: 0.00000, 253: 0.00000, 252: 0.00000, 251: 0.00000,
                250: 0.00000, 249: 0.00000, 248: 0.00000, 247: 0.00000, 246: 0.00000, 245: 0.00000, 244: 0.00000, 243: 0.00000,
                242: 0.00000, 241: 0.00000, 240: 0.00000, 239: 0.00000, 238: 0.00000, 237: 0.00000, 236: 0.00000, 235: 0.00000,
                234: 0.00000, 233: 0.00000, 232: 0.00000, 231: 0.00000, 230: 0.00000, 229: 0.00000, 228: 0.00000, 227: 0.00000,
                226: 0.00000, 225: 0.00000, 224: 0.00000, 223: 0.00000, 222: 0.00000, 221: 0.00000, 220: 0.00000, 219: 0.00000,
                218: 0.00000, 217: 0.00000, 216: 0.00000, 215: 0.00000, 214: 0.00000, 213: 0.00000, 212: 0.00000, 211: 0.00000,
                210: 0.00000, 209: 0.00000, 208: 0.00000, 207: 0.00000, 206: 0.00000, 205: 0.00000, 204: 0.00000, 203: 0.00000,
                202: 0.00000, 201: 0.00000, 200: 0.00000, 199: 0.00000, 198: 0.00000, 197: 0.00000, 196: 0.00000, 195: 0.00000,
                194: 0.00000, 193: 0.00000, 192: 0.00000, 191: 0.00000, 190: 0.00000, 189: 0.00000, 188: 0.00000, 187: 0.00000,
                186: 0.00000, 185: 0.00000, 184: 0.00000, 183: 0.00000, 182: 0.00000, 181: 0.00000, 180: 0.00000, 179: 0.00000,
                178: 0.00000, 177: 0.00000, 176: 0.00000, 175: 0.00000, 174: 0.00000, 173: 0.00000, 172: 0.00000, 171: 0.00000,
                170: 0.00000, 169: 0.00000, 168: 0.00000, 167: 0.00000, 166: 0.00000, 165: 0.00000, 164: 0.00000, 163: 0.00000,
                162: 0.00000, 161: 0.00000, 160: 0.00000, 159: 0.00000, 158: 0.00000, 157: 0.00000, 156: 0.00000, 155: 0.00000,
                154: 0.00000, 153: 0.00000, 152: 0.00000, 151: 0.00000, 150: 0.00000, 149: 0.00000, 148: 0.00000, 147: 0.00000,
                146: 0.00000, 145: 0.00000, 144: 0.00000, 143: 0.00000, 142: 0.00000, 141: 0.00000, 140: 0.00000, 139: 0.00000,
                138: 0.00000, 137: 0.00000, 136: 0.00000, 135: 0.00000, 134: 0.00000, 133: 0.00000, 132: 0.00000, 131: 0.00000,
                130: 0.00000, 129: 0.00000, 128: 0.00000, 127: 0.00000, 126: 0.00000, 125: 0.00000, 124: 0.00000, 123: 0.00000,
                122: 0.00000, 121: 0.00000, 120: 0.00000, 119: 0.00000, 118: 0.00000, 117: 0.00000, 116: 0.00000, 115: 0.00000,
                114: 0.00000, 113: 0.00000, 112: 0.00000, 111: 0.00000, 110: 0.00000, 109: 0.00000, 108: 0.00000, 107: 0.00000,
                106: 0.00000, 105: 0.00000, 104: 0.00000, 103: 0.00000, 102: 0.00000, 101: 0.00000, 100: 0.00000,  99: 0.00000,
                 98: 0.00000,  97: 0.00000,  96: 0.00000,  95: 0.00000,  94: 0.00000,  93: 0.00000,  92: 0.00000,  91: 0.00000,
                 90: 0.00000,  89: 0.00000,  88: 0.00000,  87: 0.00000,  86: 0.00000,  85: 0.00000,  84: 0.00000,  83: 0.00000,
                 82: 0.00000,  81: 0.00000,  80: 0.00000,  79: 0.00000,  78: 0.00000,  77: 0.00000,  76: 0.00000,  75: 0.00000,
                 74: 0.00000,  73: 0.00000,  72: 0.00000,  71: 0.00000,  70: 0.00000,  69: 0.00000,  68: 0.00000,  67: 0.00000,
                 66: 0.00000,  65: 0.00000,  64: 0.00000,  63: 0.00000,  62: 0.00000,  61: 0.00000,  60: 0.00000,  59: 0.00000,
                 58: 0.00000,  57: 0.00000,  56: 0.00000,  55: 0.00000,  54: 0.00000,  53: 0.00000,  52: 0.00000,  51: 0.00000,
                 50: 0.00000,  49: 0.00000,  48: 0.00000,  47: 0.00000,  46: 0.00000,  45: 0.00000,  44: 0.00000,  43: 0.00000,
                 42: 0.00000,  41: 0.00000,  40: 0.00000,  39: 0.00000,  38: 0.00000,  37: 0.00000,  36: 0.00000,  35: 0.00000,
                 34: 0.00000,  33: 0.00000,  32: 0.00000,  31: 0.00000,  30: 0.00000,  29: 0.00000,  28: 0.00000,  27: 0.00000,
                 26: 0.00000,  25: 0.00000,  24: 0.00000,  23: 0.00000,  22: 0.00000,  21: 0.00000,  20: 0.00000,  19: 0.00000,
                 18: 0.00000,  17: 0.00000,  16: 0.00000,  15: 0.00000,  14: 0.00000,  13: 0.00000,  12: 0.00000,  11: 0.00000,
                 10: 0.00000,   9: 0.00000,   8: 0.00000,   7: 0.00000,   6: 0.00000,   5: 0.00000,   4: 0.00000,   3: 0.00000,
                  2: 0.00000,   1: 0.00000
   349 |      | 346: 0.00000, 345: 0.00000, 344: 0.00000, 343: 0.00000, 342: 0.00000, 341: 0.00000, 340: 0.00000, 339: 0.00000,
                338: 0.00000, 337: 0.00000, 336: 0.00000, 335: 0.00000, 334: 0.00000, 333: 0.00000, 332: 0.00000, 331: 0.00000,
                330: 0.00000, 329: 0.00000, 328: 0.00000, 327: 0.00000, 326: 0.00000, 325: 0.00000, 324: 0.00000, 323: 0.00000,
                322: 0.00000, 321: 0.00000, 320: 0.00000, 319: 0.00000, 318: 0.00000, 317: 0.00000, 316: 0.00000, 315: 0.00000,
                314: 0.00000, 313: 0.00000, 312: 0.00000, 311: 0.00000, 310: 0.00000, 309: 0.00000, 308: 0.00000, 307: 0.00000,
                306: 0.00000, 305: 0.00000, 304: 0.00000, 303: 0.00000, 302: 0.00000, 301: 0.00000, 300: 0.00000, 299: 0.00000,
                298: 0.00000, 297: 0.00000, 296: 0.00000, 295: 0.00000, 294: 0.00000, 293: 0.00000, 292: 0.00000, 291: 0.00000,
                290: 0.00000, 289: 0.00000, 288: 0.00000, 287: 0.00000, 286: 0.00000, 285: 0.00000, 284: 0.00000, 283: 0.00000,
                282: 0.00000, 281: 0.00000, 280: 0.00000, 279: 0.00000, 278: 0.00000, 277: 0.00000, 276: 0.00000, 275: 0.00000,
                274: 0.00000, 273: 0.00000, 272: 0.00000, 271: 0.00000, 270: 0.00000, 269: 0.00000, 268: 0.00000, 267: 0.00000,
                266: 0.00000, 265: 0.00000, 264: 0.00000, 263: 0.00000, 262: 0.00000, 261: 0.00000, 260: 0.00000, 259: 0.00000,
                258: 0.00000, 257: 0.00000, 256: 0.00000, 255: 0.00000, 254: 0.00000, 253: 0.00000, 252: 0.00000, 251: 0.00000,
                250: 0.00000, 249: 0.00000, 248: 0.00000, 247: 0.00000, 246: 0.00000, 245: 0.00000, 244: 0.00000, 243: 0.00000,
                242: 0.00000, 241: 0.00000, 240: 0.00000, 239: 0.00000, 238: 0.00000, 237: 0.00000, 236: 0.00000, 235: 0.00000,
                234: 0.00000, 233: 0.00000, 232: 0.00000, 231: 0.00000, 230: 0.00000, 229: 0.00000, 228: 0.00000, 227: 0.00000,
                226: 0.00000, 225: 0.00000, 224: 0.00000, 223: 0.00000, 222: 0.00000, 221: 0.00000, 220: 0.00000, 219: 0.00000,
                218: 0.00000, 217: 0.00000, 216: 0.00000, 215: 0.00000, 214: 0.00000, 213: 0.00000, 212: 0.00000, 211: 0.00000,
                210: 0.00000, 209: 0.00000, 208: 0.00000, 207: 0.00000, 206: 0.00000, 205: 0.00000, 204: 0.00000, 203: 0.00000,
                202: 0.00000, 201: 0.00000, 200: 0.00000, 199: 0.00000, 198: 0.00000, 197: 0.00000, 196: 0.00000, 195: 0.00000,
                194: 0.00000, 193: 0.00000, 192: 0.00000, 191: 0.00000, 190: 0.00000, 189: 0.00000, 188: 0.00000, 187: 0.00000,
                186: 0.00000, 185: 0.00000, 184: 0.00000, 183: 0.00000, 182: 0.00000, 181: 0.00000, 180: 0.00000, 179: 0.00000,
                178: 0.00000, 177: 0.00000, 176: 0.00000, 175: 0.00000, 174: 0.00000, 173: 0.00000, 172: 0.00000, 171: 0.00000,
                170: 0.00000, 169: 0.00000, 168: 0.00000, 167: 0.00000, 166: 0.00000, 165: 0.00000, 164: 0.00000, 163: 0.00000,
                162: 0.00000, 161: 0.00000, 160: 0.00000, 159: 0.00000, 158: 0.00000, 157: 0.00000, 156: 0.00000, 155: 0.00000,
                154: 0.00000, 153: 0.00000, 152: 0.00000, 151: 0.00000, 150: 0.00000, 149: 0.00000, 148: 0.00000, 147: 0.00000,
                146: 0.00000, 145: 0.00000, 144: 0.00000, 143: 0.00000, 142: 0.00000, 141: 0.00000, 140: 0.00000, 139: 0.00000,
                138: 0.00000, 137: 0.00000, 136: 0.00000, 135: 0.00000, 134: 0.00000, 133: 0.00000, 132: 0.00000, 131: 0.00000,
                130: 0.00000, 129: 0.00000, 128: 0.00000, 127: 0.00000, 126: 0.00000, 125: 0.00000, 124: 0.00000, 123: 0.00000,
                122: 0.00000, 121: 0.00000, 120: 0.00000, 119: 0.00000, 118: 0.00000, 117: 0.00000, 116: 0.00000, 115: 0.00000,
                114: 0.00000, 113: 0.00000, 112: 0.00000, 111: 0.00000, 110: 0.00000, 109: 0.00000, 108: 0.00000, 107: 0.00000,
                106: 0.00000, 105: 0.00000, 104: 0.00000, 103: 0.00000, 102: 0.00000, 101: 0.00000, 100: 0.00000,  99: 0.00000,
                 98: 0.00000,  97: 0.00000,  96: 0.00000,  95: 0.00000,  94: 0.00000,  93: 0.00000,  92: 0.00000,  91: 0.00000,
                 90: 0.00000,  89: 0.00000,  88: 0.00000,  87: 0.00000,  86: 0.00000,  85: 0.00000,  84: 0.00000,  83: 0.00000,
                 82: 0.00000,  81: 0.00000,  80: 0.00000,  79: 0.00000,  78: 0.00000,  77: 0.00000,  76: 0.00000,  75: 0.00000,
                 74: 0.00000,  73: 0.00000,  72: 0.00000,  71: 0.00000,  70: 0.00000,  69: 0.00000,  68: 0.00000,  67: 0.00000,
                 66: 0.00000,  65: 0.00000,  64: 0.00000,  63: 0.00000,  62: 0.00000,  61: 0.00000,  60: 0.00000,  59: 0.00000,
                 58: 0.00000,  57: 0.00000,  56: 0.00000,  55: 0.00000,  54: 0.00000,  53: 0.00000,  52: 0.00000,  51: 0.00000,
                 50: 0.00000,  49: 0.00000,  48: 0.00000,  47: 0.00000,  46: 0.00000,  45: 0.00000,  44: 0.00000,  43: 0.00000,
                 42: 0.00000,  41: 0.00000,  40: 0.00000,  39: 0.00000,  38: 0.00000,  37: 0.00000,  36: 0.00000,  35: 0.00000,
                 34: 0.00000,  33: 0.00000,  32: 0.00000,  31: 0.00000,  30: 0.00000,  29: 0.00000,  28: 0.00000,  27: 0.00000,
                 26: 0.00000,  25: 0.00000,  24: 0.00000,  23: 0.00000,  22: 0.00000,  21: 0.00000,  20: 0.00000,  19: 0.00000,
                 18: 0.00000,  17: 0.00000,  16: 0.00000,  15: 0.00000,  14: 0.00000,  13: 0.00000,  12: 0.00000,  11: 0.00000,
                 10: 0.00000,   9: 0.00000,   8: 0.00000,   7: 0.00000,   6: 0.00000,   5: 0.00000,   4: 0.00000,   3: 0.00000,
                  2: 0.00000,   1: 0.00000
   350 |      | 346: 0.00000, 345: 0.00000, 344: 0.00000, 343: 0.00000, 342: 0.00000, 341: 0.00000, 340: 0.00000, 339: 0.00000,
                338: 0.00000, 337: 0.00000, 336: 0.00000, 335: 0.00000, 334: 0.00000, 333: 0.00000, 332: 0.00000, 331: 0.00000,
                330: 0.00000, 329: 0.00000, 328: 0.00000, 327: 0.00000, 326: 0.00000, 325: 0.00000, 324: 0.00000, 323: 0.00000,
                322: 0.00000, 321: 0.00000, 320: 0.00000, 319: 0.00000, 318: 0.00000, 317: 0.00000, 316: 0.00000, 315: 0.00000,
                314: 0.00000, 313: 0.00000, 312: 0.00000, 311: 0.00000, 310: 0.00000, 309: 0.00000, 308: 0.00000, 307: 0.00000,
                306: 0.00000, 305: 0.00000, 304: 0.00000, 303: 0.00000, 302: 0.00000, 301: 0.00000, 300: 0.00000, 299: 0.00000,
                298: 0.00000, 297: 0.00000, 296: 0.00000, 295: 0.00000, 294: 0.00000, 293: 0.00000, 292: 0.00000, 291: 0.00000,
                290: 0.00000, 289: 0.00000, 288: 0.00000, 287: 0.00000, 286: 0.00000, 285: 0.00000, 284: 0.00000, 283: 0.00000,
                282: 0.00000, 281: 0.00000, 280: 0.00000, 279: 0.00000, 278: 0.00000, 277: 0.00000, 276: 0.00000, 275: 0.00000,
                274: 0.00000, 273: 0.00000, 272: 0.00000, 271: 0.00000, 270: 0.00000, 269: 0.00000, 268: 0.00000, 267: 0.00000,
                266: 0.00000, 265: 0.00000, 264: 0.00000, 263: 0.00000, 262: 0.00000, 261: 0.00000, 260: 0.00000, 259: 0.00000,
                258: 0.00000, 257: 0.00000, 256: 0.00000, 255: 0.00000, 254: 0.00000, 253: 0.00000, 252: 0.00000, 251: 0.00000,
                250: 0.00000, 249: 0.00000, 248: 0.00000, 247: 0.00000, 246: 0.00000, 245: 0.00000, 244: 0.00000, 243: 0.00000,
                242: 0.00000, 241: 0.00000, 240: 0.00000, 239: 0.00000, 238: 0.00000, 237: 0.00000, 236: 0.00000, 235: 0.00000,
                234: 0.00000, 233: 0.00000, 232: 0.00000, 231: 0.00000, 230: 0.00000, 229: 0.00000, 228: 0.00000, 227: 0.00000,
                226: 0.00000, 225: 0.00000, 224: 0.00000, 223: 0.00000, 222: 0.00000, 221: 0.00000, 220: 0.00000, 219: 0.00000,
                218: 0.00000, 217: 0.00000, 216: 0.00000, 215: 0.00000, 214: 0.00000, 213: 0.00000, 212: 0.00000, 211: 0.00000,
                210: 0.00000, 209: 0.00000, 208: 0.00000, 207: 0.00000, 206: 0.00000, 205: 0.00000, 204: 0.00000, 203: 0.00000,
                202: 0.00000, 201: 0.00000, 200: 0.00000, 199: 0.00000, 198: 0.00000, 197: 0.00000, 196: 0.00000, 195: 0.00000,
                194: 0.00000, 193: 0.00000, 192: 0.00000, 191: 0.00000, 190: 0.00000, 189: 0.00000, 188: 0.00000, 187: 0.00000,
                186: 0.00000, 185: 0.00000, 184: 0.00000, 183: 0.00000, 182: 0.00000, 181: 0.00000, 180: 0.00000, 179: 0.00000,
                178: 0.00000, 177: 0.00000, 176: 0.00000, 175: 0.00000, 174: 0.00000, 173: 0.00000, 172: 0.00000, 171: 0.00000,
                170: 0.00000, 169: 0.00000, 168: 0.00000, 167: 0.00000, 166: 0.00000, 165: 0.00000, 164: 0.00000, 163: 0.00000,
                162: 0.00000, 161: 0.00000, 160: 0.00000, 159: 0.00000, 158: 0.00000, 157: 0.00000, 156: 0.00000, 155: 0.00000,
                154: 0.00000, 153: 0.00000, 152: 0.00000, 151: 0.00000, 150: 0.00000, 149: 0.00000, 148: 0.00000, 147: 0.00000,
                146: 0.00000, 145: 0.00000, 144: 0.00000, 143: 0.00000, 142: 0.00000, 141: 0.00000, 140: 0.00000, 139: 0.00000,
                138: 0.00000, 137: 0.00000, 136: 0.00000, 135: 0.00000, 134: 0.00000, 133: 0.00000, 132: 0.00000, 131: 0.00000,
                130: 0.00000, 129: 0.00000, 128: 0.00000, 127: 0.00000, 126: 0.00000, 125: 0.00000, 124: 0.00000, 123: 0.00000,
                122: 0.00000, 121: 0.00000, 120: 0.00000, 119: 0.00000, 118: 0.00000, 117: 0.00000, 116: 0.00000, 115: 0.00000,
                114: 0.00000, 113: 0.00000, 112: 0.00000, 111: 0.00000, 110: 0.00000, 109: 0.00000, 108: 0.00000, 107: 0.00000,
                106: 0.00000, 105: 0.00000, 104: 0.00000, 103: 0.00000, 102: 0.00000, 101: 0.00000, 100: 0.00000,  99: 0.00000,
                 98: 0.00000,  97: 0.00000,  96: 0.00000,  95: 0.00000,  94: 0.00000,  93: 0.00000,  92: 0.00000,  91: 0.00000,
                 90: 0.00000,  89: 0.00000,  88: 0.00000,  87: 0.00000,  86: 0.00000,  85: 0.00000,  84: 0.00000,  83: 0.00000,
                 82: 0.00000,  81: 0.00000,  80: 0.00000,  79: 0.00000,  78: 0.00000,  77: 0.00000,  76: 0.00000,  75: 0.00000,
                 74: 0.00000,  73: 0.00000,  72: 0.00000,  71: 0.00000,  70: 0.00000,  69: 0.00000,  68: 0.00000,  67: 0.00000,
                 66: 0.00000,  65: 0.00000,  64: 0.00000,  63: 0.00000,  62: 0.00000,  61: 0.00000,  60: 0.00000,  59: 0.00000,
                 58: 0.00000,  57: 0.00000,  56: 0.00000,  55: 0.00000,  54: 0.00000,  53: 0.00000,  52: 0.00000,  51: 0.00000,
                 50: 0.00000,  49: 0.00000,  48: 0.00000,  47: 0.00000,  46: 0.00000,  45: 0.00000,  44: 0.00000,  43: 0.00000,
                 42: 0.00000,  41: 0.00000,  40: 0.00000,  39: 0.00000,  38: 0.00000,  37: 0.00000,  36: 0.00000,  35: 0.00000,
                 34: 0.00000,  33: 0.00000,  32: 0.00000,  31: 0.00000,  30: 0.00000,  29: 0.00000,  28: 0.00000,  27: 0.00000,
                 26: 0.00000,  25: 0.00000,  24: 0.00000,  23: 0.00000,  22: 0.00000,  21: 0.00000,  20: 0.00000,  19: 0.00000,
                 18: 0.00000,  17: 0.00000,  16: 0.00000,  15: 0.00000,  14: 0.00000,  13: 0.00000,  12: 0.00000,  11: 0.00000,
                 10: 0.00000,   9: 0.00000,   8: 0.00000,   7: 0.00000,   6: 0.00000,   5: 0.00000,   4: 0.00000,   3: 0.00000,
                  2: 0.00000,   1: 0.00000
   351 |      | 346: 0.00000, 345: 0.00000, 344: 0.00000, 343: 0.00000, 342: 0.00000, 341: 0.00000, 340: 0.00000, 339: 0.00000,
                338: 0.00000, 337: 0.00000, 336: 0.00000, 335: 0.00000, 334: 0.00000, 333: 0.00000, 332: 0.00000, 331: 0.00000,
                330: 0.00000, 329: 0.00000, 328: 0.00000, 327: 0.00000, 326: 0.00000, 325: 0.00000, 324: 0.00000, 323: 0.00000,
                322: 0.00000, 321: 0.00000, 320: 0.00000, 319: 0.00000, 318: 0.00000, 317: 0.00000, 316: 0.00000, 315: 0.00000,
                314: 0.00000, 313: 0.00000, 312: 0.00000, 311: 0.00000, 310: 0.00000, 309: 0.00000, 308: 0.00000, 307: 0.00000,
                306: 0.00000, 305: 0.00000, 304: 0.00000, 303: 0.00000, 302: 0.00000, 301: 0.00000, 300: 0.00000, 299: 0.00000,
                298: 0.00000, 297: 0.00000, 296: 0.00000, 295: 0.00000, 294: 0.00000, 293: 0.00000, 292: 0.00000, 291: 0.00000,
                290: 0.00000, 289: 0.00000, 288: 0.00000, 287: 0.00000, 286: 0.00000, 285: 0.00000, 284: 0.00000, 283: 0.00000,
                282: 0.00000, 281: 0.00000, 280: 0.00000, 279: 0.00000, 278: 0.00000, 277: 0.00000, 276: 0.00000, 275: 0.00000,
                274: 0.00000, 273: 0.00000, 272: 0.00000, 271: 0.00000, 270: 0.00000, 269: 0.00000, 268: 0.00000, 267: 0.00000,
                266: 0.00000, 265: 0.00000, 264: 0.00000, 263: 0.00000, 262: 0.00000, 261: 0.00000, 260: 0.00000, 259: 0.00000,
                258: 0.00000, 257: 0.00000, 256: 0.00000, 255: 0.00000, 254: 0.00000, 253: 0.00000, 252: 0.00000, 251: 0.00000,
                250: 0.00000, 249: 0.00000, 248: 0.00000, 247: 0.00000, 246: 0.00000, 245: 0.00000, 244: 0.00000, 243: 0.00000,
                242: 0.00000, 241: 0.00000, 240: 0.00000, 239: 0.00000, 238: 0.00000, 237: 0.00000, 236: 0.00000, 235: 0.00000,
                234: 0.00000, 233: 0.00000, 232: 0.00000, 231: 0.00000, 230: 0.00000, 229: 0.00000, 228: 0.00000, 227: 0.00000,
                226: 0.00000, 225: 0.00000, 224: 0.00000, 223: 0.00000, 222: 0.00000, 221: 0.00000, 220: 0.00000, 219: 0.00000,
                218: 0.00000, 217: 0.00000, 216: 0.00000, 215: 0.00000, 214: 0.00000, 213: 0.00000, 212: 0.00000, 211: 0.00000,
                210: 0.00000, 209: 0.00000, 208: 0.00000, 207: 0.00000, 206: 0.00000, 205: 0.00000, 204: 0.00000, 203: 0.00000,
                202: 0.00000, 201: 0.00000, 200: 0.00000, 199: 0.00000, 198: 0.00000, 197: 0.00000, 196: 0.00000, 195: 0.00000,
                194: 0.00000, 193: 0.00000, 192: 0.00000, 191: 0.00000, 190: 0.00000, 189: 0.00000, 188: 0.00000, 187: 0.00000,
                186: 0.00000, 185: 0.00000, 184: 0.00000, 183: 0.00000, 182: 0.00000, 181: 0.00000, 180: 0.00000, 179: 0.00000,
                178: 0.00000, 177: 0.00000, 176: 0.00000, 175: 0.00000, 174: 0.00000, 173: 0.00000, 172: 0.00000, 171: 0.00000,
                170: 0.00000, 169: 0.00000, 168: 0.00000, 167: 0.00000, 166: 0.00000, 165: 0.00000, 164: 0.00000, 163: 0.00000,
                162: 0.00000, 161: 0.00000, 160: 0.00000, 159: 0.00000, 158: 0.00000, 157: 0.00000, 156: 0.00000, 155: 0.00000,
                154: 0.00000, 153: 0.00000, 152: 0.00000, 151: 0.00000, 150: 0.00000, 149: 0.00000, 148: 0.00000, 147: 0.00000,
                146: 0.00000, 145: 0.00000, 144: 0.00000, 143: 0.00000, 142: 0.00000, 141: 0.00000, 140: 0.00000, 139: 0.00000,
                138: 0.00000, 137: 0.00000, 136: 0.00000, 135: 0.00000, 134: 0.00000, 133: 0.00000, 132: 0.00000, 131: 0.00000,
                130: 0.00000, 129: 0.00000, 128: 0.00000, 127: 0.00000, 126: 0.00000, 125: 0.00000, 124: 0.00000, 123: 0.00000,
                122: 0.00000, 121: 0.00000, 120: 0.00000, 119: 0.00000, 118: 0.00000, 117: 0.00000, 116: 0.00000, 115: 0.00000,
                114: 0.00000, 113: 0.00000, 112: 0.00000, 111: 0.00000, 110: 0.00000, 109: 0.00000, 108: 0.00000, 107: 0.00000,
                106: 0.00000, 105: 0.00000, 104: 0.00000, 103: 0.00000, 102: 0.00000, 101: 0.00000, 100: 0.00000,  99: 0.00000,
                 98: 0.00000,  97: 0.00000,  96: 0.00000,  95: 0.00000,  94: 0.00000,  93: 0.00000,  92: 0.00000,  91: 0.00000,
                 90: 0.00000,  89: 0.00000,  88: 0.00000,  87: 0.00000,  86: 0.00000,  85: 0.00000,  84: 0.00000,  83: 0.00000,
                 82: 0.00000,  81: 0.00000,  80: 0.00000,  79: 0.00000,  78: 0.00000,  77: 0.00000,  76: 0.00000,  75: 0.00000,
                 74: 0.00000,  73: 0.00000,  72: 0.00000,  71: 0.00000,  70: 0.00000,  69: 0.00000,  68: 0.00000,  67: 0.00000,
                 66: 0.00000,  65: 0.00000,  64: 0.00000,  63: 0.00000,  62: 0.00000,  61: 0.00000,  60: 0.00000,  59: 0.00000,
                 58: 0.00000,  57: 0.00000,  56: 0.00000,  55: 0.00000,  54: 0.00000,  53: 0.00000,  52: 0.00000,  51: 0.00000,
                 50: 0.00000,  49: 0.00000,  48: 0.00000,  47: 0.00000,  46: 0.00000,  45: 0.00000,  44: 0.00000,  43: 0.00000,
                 42: 0.00000,  41: 0.00000,  40: 0.00000,  39: 0.00000,  38: 0.00000,  37: 0.00000,  36: 0.00000,  35: 0.00000,
                 34: 0.00000,  33: 0.00000,  32: 0.00000,  31: 0.00000,  30: 0.00000,  29: 0.00000,  28: 0.00000,  27: 0.00000,
                 26: 0.00000,  25: 0.00000,  24: 0.00000,  23: 0.00000,  22: 0.00000,  21: 0.00000,  20: 0.00000,  19: 0.00000,
                 18: 0.00000,  17: 0.00000,  16: 0.00000,  15: 0.00000,  14: 0.00000,  13: 0.00000,  12: 0.00000,  11: 0.00000,
                 10: 0.00000,   9: 0.00000,   8: 0.00000,   7: 0.00000,   6: 0.00000,   5: 0.00000,   4: 0.00000,   3: 0.00000,
                  2: 0.00000,   1: 0.00000
   352 |      | 346: 0.00000, 345: 0.00000, 344: 0.00000, 343: 0.00000, 342: 0.00000, 341: 0.00000, 340: 0.00000, 339: 0.00000,
                338: 0.00000, 337: 0.00000, 336: 0.00000, 335: 0.00000, 334: 0.00000, 333: 0.00000, 332: 0.00000, 331: 0.00000,
                330: 0.00000, 329: 0.00000, 328: 0.00000, 327: 0.00000, 326: 0.00000, 325: 0.00000, 324: 0.00000, 323: 0.00000,
                322: 0.00000, 321: 0.00000, 320: 0.00000, 319: 0.00000, 318: 0.00000, 317: 0.00000, 316: 0.00000, 315: 0.00000,
                314: 0.00000, 313: 0.00000, 312: 0.00000, 311: 0.00000, 310: 0.00000, 309: 0.00000, 308: 0.00000, 307: 0.00000,
                306: 0.00000, 305: 0.00000, 304: 0.00000, 303: 0.00000, 302: 0.00000, 301: 0.00000, 300: 0.00000, 299: 0.00000,
                298: 0.00000, 297: 0.00000, 296: 0.00000, 295: 0.00000, 294: 0.00000, 293: 0.00000, 292: 0.00000, 291: 0.00000,
                290: 0.00000, 289: 0.00000, 288: 0.00000, 287: 0.00000, 286: 0.00000, 285: 0.00000, 284: 0.00000, 283: 0.00000,
                282: 0.00000, 281: 0.00000, 280: 0.00000, 279: 0.00000, 278: 0.00000, 277: 0.00000, 276: 0.00000, 275: 0.00000,
                274: 0.00000, 273: 0.00000, 272: 0.00000, 271: 0.00000, 270: 0.00000, 269: 0.00000, 268: 0.00000, 267: 0.00000,
                266: 0.00000, 265: 0.00000, 264: 0.00000, 263: 0.00000, 262: 0.00000, 261: 0.00000, 260: 0.00000, 259: 0.00000,
                258: 0.00000, 257: 0.00000, 256: 0.00000, 255: 0.00000, 254: 0.00000, 253: 0.00000, 252: 0.00000, 251: 0.00000,
                250: 0.00000, 249: 0.00000, 248: 0.00000, 247: 0.00000, 246: 0.00000, 245: 0.00000, 244: 0.00000, 243: 0.00000,
                242: 0.00000, 241: 0.00000, 240: 0.00000, 239: 0.00000, 238: 0.00000, 237: 0.00000, 236: 0.00000, 235: 0.00000,
                234: 0.00000, 233: 0.00000, 232: 0.00000, 231: 0.00000, 230: 0.00000, 229: 0.00000, 228: 0.00000, 227: 0.00000,
                226: 0.00000, 225: 0.00000, 224: 0.00000, 223: 0.00000, 222: 0.00000, 221: 0.00000, 220: 0.00000, 219: 0.00000,
                218: 0.00000, 217: 0.00000, 216: 0.00000, 215: 0.00000, 214: 0.00000, 213: 0.00000, 212: 0.00000, 211: 0.00000,
                210: 0.00000, 209: 0.00000, 208: 0.00000, 207: 0.00000, 206: 0.00000, 205: 0.00000, 204: 0.00000, 203: 0.00000,
                202: 0.00000, 201: 0.00000, 200: 0.00000, 199: 0.00000, 198: 0.00000, 197: 0.00000, 196: 0.00000, 195: 0.00000,
                194: 0.00000, 193: 0.00000, 192: 0.00000, 191: 0.00000, 190: 0.00000, 189: 0.00000, 188: 0.00000, 187: 0.00000,
                186: 0.00000, 185: 0.00000, 184: 0.00000, 183: 0.00000, 182: 0.00000, 181: 0.00000, 180: 0.00000, 179: 0.00000,
                178: 0.00000, 177: 0.00000, 176: 0.00000, 175: 0.00000, 174: 0.00000, 173: 0.00000, 172: 0.00000, 171: 0.00000,
                170: 0.00000, 169: 0.00000, 168: 0.00000, 167: 0.00000, 166: 0.00000, 165: 0.00000, 164: 0.00000, 163: 0.00000,
                162: 0.00000, 161: 0.00000, 160: 0.00000, 159: 0.00000, 158: 0.00000, 157: 0.00000, 156: 0.00000, 155: 0.00000,
                154: 0.00000, 153: 0.00000, 152: 0.00000, 151: 0.00000, 150: 0.00000, 149: 0.00000, 148: 0.00000, 147: 0.00000,
                146: 0.00000, 145: 0.00000, 144: 0.00000, 143: 0.00000, 142: 0.00000, 141: 0.00000, 140: 0.00000, 139: 0.00000,
                138: 0.00000, 137: 0.00000, 136: 0.00000, 135: 0.00000, 134: 0.00000, 133: 0.00000, 132: 0.00000, 131: 0.00000,
                130: 0.00000, 129: 0.00000, 128: 0.00000, 127: 0.00000, 126: 0.00000, 125: 0.00000, 124: 0.00000, 123: 0.00000,
                122: 0.00000, 121: 0.00000, 120: 0.00000, 119: 0.00000, 118: 0.00000, 117: 0.00000, 116: 0.00000, 115: 0.00000,
                114: 0.00000, 113: 0.00000, 112: 0.00000, 111: 0.00000, 110: 0.00000, 109: 0.00000, 108: 0.00000, 107: 0.00000,
                106: 0.00000, 105: 0.00000, 104: 0.00000, 103: 0.00000, 102: 0.00000, 101: 0.00000, 100: 0.00000,  99: 0.00000,
                 98: 0.00000,  97: 0.00000,  96: 0.00000,  95: 0.00000,  94: 0.00000,  93: 0.00000,  92: 0.00000,  91: 0.00000,
                 90: 0.00000,  89: 0.00000,  88: 0.00000,  87: 0.00000,  86: 0.00000,  85: 0.00000,  84: 0.00000,  83: 0.00000,
                 82: 0.00000,  81: 0.00000,  80: 0.00000,  79: 0.00000,  78: 0.00000,  77: 0.00000,  76: 0.00000,  75: 0.00000,
                 74: 0.00000,  73: 0.00000,  72: 0.00000,  71: 0.00000,  70: 0.00000,  69: 0.00000,  68: 0.00000,  67: 0.00000,
                 66: 0.00000,  65: 0.00000,  64: 0.00000,  63: 0.00000,  62: 0.00000,  61: 0.00000,  60: 0.00000,  59: 0.00000,
                 58: 0.00000,  57: 0.00000,  56: 0.00000,  55: 0.00000,  54: 0.00000,  53: 0.00000,  52: 0.00000,  51: 0.00000,
                 50: 0.00000,  49: 0.00000,  48: 0.00000,  47: 0.00000,  46: 0.00000,  45: 0.00000,  44: 0.00000,  43: 0.00000,
                 42: 0.00000,  41: 0.00000,  40: 0.00000,  39: 0.00000,  38: 0.00000,  37: 0.00000,  36: 0.00000,  35: 0.00000,
                 34: 0.00000,  33: 0.00000,  32: 0.00000,  31: 0.00000,  30: 0.00000,  29: 0.00000,  28: 0.00000,  27: 0.00000,
                 26: 0.00000,  25: 0.00000,  24: 0.00000,  23: 0.00000,  22: 0.00000,  21: 0.00000,  20: 0.00000,  19: 0.00000,
                 18: 0.00000,  17: 0.00000,  16: 0.00000,  15: 0.00000,  14: 0.00000,  13: 0.00000,  12: 0.00000,  11: 0.00000,
                 10: 0.00000,   9: 0.00000,   8: 0.00000,   7: 0.00000,   6: 0.00000,   5: 0.00000,   4: 0.00000,   3: 0.00000,
                  2: 0.00000,   1: 0.00000
   353 |      | 346: 0.00000, 345: 0.00000, 344: 0.00000, 343: 0.00000, 342: 0.00000, 341: 0.00000, 340: 0.00000, 339: 0.00000,
                338: 0.00000, 337: 0.00000, 336: 0.00000, 335: 0.00000, 334: 0.00000, 333: 0.00000, 332: 0.00000, 331: 0.00000,
                330: 0.00000, 329: 0.00000, 328: 0.00000, 327: 0.00000, 326: 0.00000, 325: 0.00000, 324: 0.00000, 323: 0.00000,
                322: 0.00000, 321: 0.00000, 320: 0.00000, 319: 0.00000, 318: 0.00000, 317: 0.00000, 316: 0.00000, 315: 0.00000,
                314: 0.00000, 313: 0.00000, 312: 0.00000, 311: 0.00000, 310: 0.00000, 309: 0.00000, 308: 0.00000, 307: 0.00000,
                306: 0.00000, 305: 0.00000, 304: 0.00000, 303: 0.00000, 302: 0.00000, 301: 0.00000, 300: 0.00000, 299: 0.00000,
                298: 0.00000, 297: 0.00000, 296: 0.00000, 295: 0.00000, 294: 0.00000, 293: 0.00000, 292: 0.00000, 291: 0.00000,
                290: 0.00000, 289: 0.00000, 288: 0.00000, 287: 0.00000, 286: 0.00000, 285: 0.00000, 284: 0.00000, 283: 0.00000,
                282: 0.00000, 281: 0.00000, 280: 0.00000, 279: 0.00000, 278: 0.00000, 277: 0.00000, 276: 0.00000, 275: 0.00000,
                274: 0.00000, 273: 0.00000, 272: 0.00000, 271: 0.00000, 270: 0.00000, 269: 0.00000, 268: 0.00000, 267: 0.00000,
                266: 0.00000, 265: 0.00000, 264: 0.00000, 263: 0.00000, 262: 0.00000, 261: 0.00000, 260: 0.00000, 259: 0.00000,
                258: 0.00000, 257: 0.00000, 256: 0.00000, 255: 0.00000, 254: 0.00000, 253: 0.00000, 252: 0.00000, 251: 0.00000,
                250: 0.00000, 249: 0.00000, 248: 0.00000, 247: 0.00000, 246: 0.00000, 245: 0.00000, 244: 0.00000, 243: 0.00000,
                242: 0.00000, 241: 0.00000, 240: 0.00000, 239: 0.00000, 238: 0.00000, 237: 0.00000, 236: 0.00000, 235: 0.00000,
                234: 0.00000, 233: 0.00000, 232: 0.00000, 231: 0.00000, 230: 0.00000, 229: 0.00000, 228: 0.00000, 227: 0.00000,
                226: 0.00000, 225: 0.00000, 224: 0.00000, 223: 0.00000, 222: 0.00000, 221: 0.00000, 220: 0.00000, 219: 0.00000,
                218: 0.00000, 217: 0.00000, 216: 0.00000, 215: 0.00000, 214: 0.00000, 213: 0.00000, 212: 0.00000, 211: 0.00000,
                210: 0.00000, 209: 0.00000, 208: 0.00000, 207: 0.00000, 206: 0.00000, 205: 0.00000, 204: 0.00000, 203: 0.00000,
                202: 0.00000, 201: 0.00000, 200: 0.00000, 199: 0.00000, 198: 0.00000, 197: 0.00000, 196: 0.00000, 195: 0.00000,
                194: 0.00000, 193: 0.00000, 192: 0.00000, 191: 0.00000, 190: 0.00000, 189: 0.00000, 188: 0.00000, 187: 0.00000,
                186: 0.00000, 185: 0.00000, 184: 0.00000, 183: 0.00000, 182: 0.00000, 181: 0.00000, 180: 0.00000, 179: 0.00000,
                178: 0.00000, 177: 0.00000, 176: 0.00000, 175: 0.00000, 174: 0.00000, 173: 0.00000, 172: 0.00000, 171: 0.00000,
                170: 0.00000, 169: 0.00000, 168: 0.00000, 167: 0.00000, 166: 0.00000, 165: 0.00000, 164: 0.00000, 163: 0.00000,
                162: 0.00000, 161: 0.00000, 160: 0.00000, 159: 0.00000, 158: 0.00000, 157: 0.00000, 156: 0.00000, 155: 0.00000,
                154: 0.00000, 153: 0.00000, 152: 0.00000, 151: 0.00000, 150: 0.00000, 149: 0.00000, 148: 0.00000, 147: 0.00000,
                146: 0.00000, 145: 0.00000, 144: 0.00000, 143: 0.00000, 142: 0.00000, 141: 0.00000, 140: 0.00000, 139: 0.00000,
                138: 0.00000, 137: 0.00000, 136: 0.00000, 135: 0.00000, 134: 0.00000, 133: 0.00000, 132: 0.00000, 131: 0.00000,
                130: 0.00000, 129: 0.00000, 128: 0.00000, 127: 0.00000, 126: 0.00000, 125: 0.00000, 124: 0.00000, 123: 0.00000,
                122: 0.00000, 121: 0.00000, 120: 0.00000, 119: 0.00000, 118: 0.00000, 117: 0.00000, 116: 0.00000, 115: 0.00000,
                114: 0.00000, 113: 0.00000, 112: 0.00000, 111: 0.00000, 110: 0.00000, 109: 0.00000, 108: 0.00000, 107: 0.00000,
                106: 0.00000, 105: 0.00000, 104: 0.00000, 103: 0.00000, 102: 0.00000, 101: 0.00000, 100: 0.00000,  99: 0.00000,
                 98: 0.00000,  97: 0.00000,  96: 0.00000,  95: 0.00000,  94: 0.00000,  93: 0.00000,  92: 0.00000,  91: 0.00000,
                 90: 0.00000,  89: 0.00000,  88: 0.00000,  87: 0.00000,  86: 0.00000,  85: 0.00000,  84: 0.00000,  83: 0.00000,
                 82: 0.00000,  81: 0.00000,  80: 0.00000,  79: 0.00000,  78: 0.00000,  77: 0.00000,  76: 0.00000,  75: 0.00000,
                 74: 0.00000,  73: 0.00000,  72: 0.00000,  71: 0.00000,  70: 0.00000,  69: 0.00000,  68: 0.00000,  67: 0.00000,
                 66: 0.00000,  65: 0.00000,  64: 0.00000,  63: 0.00000,  62: 0.00000,  61: 0.00000,  60: 0.00000,  59: 0.00000,
                 58: 0.00000,  57: 0.00000,  56: 0.00000,  55: 0.00000,  54: 0.00000,  53: 0.00000,  52: 0.00000,  51: 0.00000,
                 50: 0.00000,  49: 0.00000,  48: 0.00000,  47: 0.00000,  46: 0.00000,  45: 0.00000,  44: 0.00000,  43: 0.00000,
                 42: 0.00000,  41: 0.00000,  40: 0.00000,  39: 0.00000,  38: 0.00000,  37: 0.00000,  36: 0.00000,  35: 0.00000,
                 34: 0.00000,  33: 0.00000,  32: 0.00000,  31: 0.00000,  30: 0.00000,  29: 0.00000,  28: 0.00000,  27: 0.00000,
                 26: 0.00000,  25: 0.00000,  24: 0.00000,  23: 0.00000,  22: 0.00000,  21: 0.00000,  20: 0.00000,  19: 0.00000,
                 18: 0.00000,  17: 0.00000,  16: 0.00000,  15: 0.00000,  14: 0.00000,  13: 0.00000,  12: 0.00000,  11: 0.00000,
                 10: 0.00000,   9: 0.00000,   8: 0.00000,   7: 0.00000,   6: 0.00000,   5: 0.00000,   4: 0.00000,   3: 0.00000,
                  2: 0.00000,   1: 0.00000
   354 |      | 346: 0.00000, 345: 0.00000, 344: 0.00000, 343: 0.00000, 342: 0.00000, 341: 0.00000, 340: 0.00000, 339: 0.00000,
                338: 0.00000, 337: 0.00000, 336: 0.00000, 335: 0.00000, 334: 0.00000, 333: 0.00000, 332: 0.00000, 331: 0.00000,
                330: 0.00000, 329: 0.00000, 328: 0.00000, 327: 0.00000, 326: 0.00000, 325: 0.00000, 324: 0.00000, 323: 0.00000,
                322: 0.00000, 321: 0.00000, 320: 0.00000, 319: 0.00000, 318: 0.00000, 317: 0.00000, 316: 0.00000, 315: 0.00000,
                314: 0.00000, 313: 0.00000, 312: 0.00000, 311: 0.00000, 310: 0.00000, 309: 0.00000, 308: 0.00000, 307: 0.00000,
                306: 0.00000, 305: 0.00000, 304: 0.00000, 303: 0.00000, 302: 0.00000, 301: 0.00000, 300: 0.00000, 299: 0.00000,
                298: 0.00000, 297: 0.00000, 296: 0.00000, 295: 0.00000, 294: 0.00000, 293: 0.00000, 292: 0.00000, 291: 0.00000,
                290: 0.00000, 289: 0.00000, 288: 0.00000, 287: 0.00000, 286: 0.00000, 285: 0.00000, 284: 0.00000, 283: 0.00000,
                282: 0.00000, 281: 0.00000, 280: 0.00000, 279: 0.00000, 278: 0.00000, 277: 0.00000, 276: 0.00000, 275: 0.00000,
                274: 0.00000, 273: 0.00000, 272: 0.00000, 271: 0.00000, 270: 0.00000, 269: 0.00000, 268: 0.00000, 267: 0.00000,
                266: 0.00000, 265: 0.00000, 264: 0.00000, 263: 0.00000, 262: 0.00000, 261: 0.00000, 260: 0.00000, 259: 0.00000,
                258: 0.00000, 257: 0.00000, 256: 0.00000, 255: 0.00000, 254: 0.00000, 253: 0.00000, 252: 0.00000, 251: 0.00000,
                250: 0.00000, 249: 0.00000, 248: 0.00000, 247: 0.00000, 246: 0.00000, 245: 0.00000, 244: 0.00000, 243: 0.00000,
                242: 0.00000, 241: 0.00000, 240: 0.00000, 239: 0.00000, 238: 0.00000, 237: 0.00000, 236: 0.00000, 235: 0.00000,
                234: 0.00000, 233: 0.00000, 232: 0.00000, 231: 0.00000, 230: 0.00000, 229: 0.00000, 228: 0.00000, 227: 0.00000,
                226: 0.00000, 225: 0.00000, 224: 0.00000, 223: 0.00000, 222: 0.00000, 221: 0.00000, 220: 0.00000, 219: 0.00000,
                218: 0.00000, 217: 0.00000, 216: 0.00000, 215: 0.00000, 214: 0.00000, 213: 0.00000, 212: 0.00000, 211: 0.00000,
                210: 0.00000, 209: 0.00000, 208: 0.00000, 207: 0.00000, 206: 0.00000, 205: 0.00000, 204: 0.00000, 203: 0.00000,
                202: 0.00000, 201: 0.00000, 200: 0.00000, 199: 0.00000, 198: 0.00000, 197: 0.00000, 196: 0.00000, 195: 0.00000,
                194: 0.00000, 193: 0.00000, 192: 0.00000, 191: 0.00000, 190: 0.00000, 189: 0.00000, 188: 0.00000, 187: 0.00000,
                186: 0.00000, 185: 0.00000, 184: 0.00000, 183: 0.00000, 182: 0.00000, 181: 0.00000, 180: 0.00000, 179: 0.00000,
                178: 0.00000, 177: 0.00000, 176: 0.00000, 175: 0.00000, 174: 0.00000, 173: 0.00000, 172: 0.00000, 171: 0.00000,
                170: 0.00000, 169: 0.00000, 168: 0.00000, 167: 0.00000, 166: 0.00000, 165: 0.00000, 164: 0.00000, 163: 0.00000,
                162: 0.00000, 161: 0.00000, 160: 0.00000, 159: 0.00000, 158: 0.00000, 157: 0.00000, 156: 0.00000, 155: 0.00000,
                154: 0.00000, 153: 0.00000, 152: 0.00000, 151: 0.00000, 150: 0.00000, 149: 0.00000, 148: 0.00000, 147: 0.00000,
                146: 0.00000, 145: 0.00000, 144: 0.00000, 143: 0.00000, 142: 0.00000, 141: 0.00000, 140: 0.00000, 139: 0.00000,
                138: 0.00000, 137: 0.00000, 136: 0.00000, 135: 0.00000, 134: 0.00000, 133: 0.00000, 132: 0.00000, 131: 0.00000,
                130: 0.00000, 129: 0.00000, 128: 0.00000, 127: 0.00000, 126: 0.00000, 125: 0.00000, 124: 0.00000, 123: 0.00000,
                122: 0.00000, 121: 0.00000, 120: 0.00000, 119: 0.00000, 118: 0.00000, 117: 0.00000, 116: 0.00000, 115: 0.00000,
                114: 0.00000, 113: 0.00000, 112: 0.00000, 111: 0.00000, 110: 0.00000, 109: 0.00000, 108: 0.00000, 107: 0.00000,
                106: 0.00000, 105: 0.00000, 104: 0.00000, 103: 0.00000, 102: 0.00000, 101: 0.00000, 100: 0.00000,  99: 0.00000,
                 98: 0.00000,  97: 0.00000,  96: 0.00000,  95: 0.00000,  94: 0.00000,  93: 0.00000,  92: 0.00000,  91: 0.00000,
                 90: 0.00000,  89: 0.00000,  88: 0.00000,  87: 0.00000,  86: 0.00000,  85: 0.00000,  84: 0.00000,  83: 0.00000,
                 82: 0.00000,  81: 0.00000,  80: 0.00000,  79: 0.00000,  78: 0.00000,  77: 0.00000,  76: 0.00000,  75: 0.00000,
                 74: 0.00000,  73: 0.00000,  72: 0.00000,  71: 0.00000,  70: 0.00000,  69: 0.00000,  68: 0.00000,  67: 0.00000,
                 66: 0.00000,  65: 0.00000,  64: 0.00000,  63: 0.00000,  62: 0.00000,  61: 0.00000,  60: 0.00000,  59: 0.00000,
                 58: 0.00000,  57: 0.00000,  56: 0.00000,  55: 0.00000,  54: 0.00000,  53: 0.00000,  52: 0.00000,  51: 0.00000,
                 50: 0.00000,  49: 0.00000,  48: 0.00000,  47: 0.00000,  46: 0.00000,  45: 0.00000,  44: 0.00000,  43: 0.00000,
                 42: 0.00000,  41: 0.00000,  40: 0.00000,  39: 0.00000,  38: 0.00000,  37: 0.00000,  36: 0.00000,  35: 0.00000,
                 34: 0.00000,  33: 0.00000,  32: 0.00000,  31: 0.00000,  30: 0.00000,  29: 0.00000,  28: 0.00000,  27: 0.00000,
                 26: 0.00000,  25: 0.00000,  24: 0.00000,  23: 0.00000,  22: 0.00000,  21: 0.00000,  20: 0.00000,  19: 0.00000,
                 18: 0.00000,  17: 0.00000,  16: 0.00000,  15: 0.00000,  14: 0.00000,  13: 0.00000,  12: 0.00000,  11: 0.00000,
                 10: 0.00000,   9: 0.00000,   8: 0.00000,   7: 0.00000,   6: 0.00000,   5: 0.00000,   4: 0.00000,   3: 0.00000,
                  2: 0.00000,   1: 0.00000
   355 |      | 346: 0.00000, 345: 0.00000, 344: 0.00000, 343: 0.00000, 342: 0.00000, 341: 0.00000, 340: 0.00000, 339: 0.00000,
                338: 0.00000, 337: 0.00000, 336: 0.00000, 335: 0.00000, 334: 0.00000, 333: 0.00000, 332: 0.00000, 331: 0.00000,
                330: 0.00000, 329: 0.00000, 328: 0.00000, 327: 0.00000, 326: 0.00000, 325: 0.00000, 324: 0.00000, 323: 0.00000,
                322: 0.00000, 321: 0.00000, 320: 0.00000, 319: 0.00000, 318: 0.00000, 317: 0.00000, 316: 0.00000, 315: 0.00000,
                314: 0.00000, 313: 0.00000, 312: 0.00000, 311: 0.00000, 310: 0.00000, 309: 0.00000, 308: 0.00000, 307: 0.00000,
                306: 0.00000, 305: 0.00000, 304: 0.00000, 303: 0.00000, 302: 0.00000, 301: 0.00000, 300: 0.00000, 299: 0.00000,
                298: 0.00000, 297: 0.00000, 296: 0.00000, 295: 0.00000, 294: 0.00000, 293: 0.00000, 292: 0.00000, 291: 0.00000,
                290: 0.00000, 289: 0.00000, 288: 0.00000, 287: 0.00000, 286: 0.00000, 285: 0.00000, 284: 0.00000, 283: 0.00000,
                282: 0.00000, 281: 0.00000, 280: 0.00000, 279: 0.00000, 278: 0.00000, 277: 0.00000, 276: 0.00000, 275: 0.00000,
                274: 0.00000, 273: 0.00000, 272: 0.00000, 271: 0.00000, 270: 0.00000, 269: 0.00000, 268: 0.00000, 267: 0.00000,
                266: 0.00000, 265: 0.00000, 264: 0.00000, 263: 0.00000, 262: 0.00000, 261: 0.00000, 260: 0.00000, 259: 0.00000,
                258: 0.00000, 257: 0.00000, 256: 0.00000, 255: 0.00000, 254: 0.00000, 253: 0.00000, 252: 0.00000, 251: 0.00000,
                250: 0.00000, 249: 0.00000, 248: 0.00000, 247: 0.00000, 246: 0.00000, 245: 0.00000, 244: 0.00000, 243: 0.00000,
                242: 0.00000, 241: 0.00000, 240: 0.00000, 239: 0.00000, 238: 0.00000, 237: 0.00000, 236: 0.00000, 235: 0.00000,
                234: 0.00000, 233: 0.00000, 232: 0.00000, 231: 0.00000, 230: 0.00000, 229: 0.00000, 228: 0.00000, 227: 0.00000,
                226: 0.00000, 225: 0.00000, 224: 0.00000, 223: 0.00000, 222: 0.00000, 221: 0.00000, 220: 0.00000, 219: 0.00000,
                218: 0.00000, 217: 0.00000, 216: 0.00000, 215: 0.00000, 214: 0.00000, 213: 0.00000, 212: 0.00000, 211: 0.00000,
                210: 0.00000, 209: 0.00000, 208: 0.00000, 207: 0.00000, 206: 0.00000, 205: 0.00000, 204: 0.00000, 203: 0.00000,
                202: 0.00000, 201: 0.00000, 200: 0.00000, 199: 0.00000, 198: 0.00000, 197: 0.00000, 196: 0.00000, 195: 0.00000,
                194: 0.00000, 193: 0.00000, 192: 0.00000, 191: 0.00000, 190: 0.00000, 189: 0.00000, 188: 0.00000, 187: 0.00000,
                186: 0.00000, 185: 0.00000, 184: 0.00000, 183: 0.00000, 182: 0.00000, 181: 0.00000, 180: 0.00000, 179: 0.00000,
                178: 0.00000, 177: 0.00000, 176: 0.00000, 175: 0.00000, 174: 0.00000, 173: 0.00000, 172: 0.00000, 171: 0.00000,
                170: 0.00000, 169: 0.00000, 168: 0.00000, 167: 0.00000, 166: 0.00000, 165: 0.00000, 164: 0.00000, 163: 0.00000,
                162: 0.00000, 161: 0.00000, 160: 0.00000, 159: 0.00000, 158: 0.00000, 157: 0.00000, 156: 0.00000, 155: 0.00000,
                154: 0.00000, 153: 0.00000, 152: 0.00000, 151: 0.00000, 150: 0.00000, 149: 0.00000, 148: 0.00000, 147: 0.00000,
                146: 0.00000, 145: 0.00000, 144: 0.00000, 143: 0.00000, 142: 0.00000, 141: 0.00000, 140: 0.00000, 139: 0.00000,
                138: 0.00000, 137: 0.00000, 136: 0.00000, 135: 0.00000, 134: 0.00000, 133: 0.00000, 132: 0.00000, 131: 0.00000,
                130: 0.00000, 129: 0.00000, 128: 0.00000, 127: 0.00000, 126: 0.00000, 125: 0.00000, 124: 0.00000, 123: 0.00000,
                122: 0.00000, 121: 0.00000, 120: 0.00000, 119: 0.00000, 118: 0.00000, 117: 0.00000, 116: 0.00000, 115: 0.00000,
                114: 0.00000, 113: 0.00000, 112: 0.00000, 111: 0.00000, 110: 0.00000, 109: 0.00000, 108: 0.00000, 107: 0.00000,
                106: 0.00000, 105: 0.00000, 104: 0.00000, 103: 0.00000, 102: 0.00000, 101: 0.00000, 100: 0.00000,  99: 0.00000,
                 98: 0.00000,  97: 0.00000,  96: 0.00000,  95: 0.00000,  94: 0.00000,  93: 0.00000,  92: 0.00000,  91: 0.00000,
                 90: 0.00000,  89: 0.00000,  88: 0.00000,  87: 0.00000,  86: 0.00000,  85: 0.00000,  84: 0.00000,  83: 0.00000,
                 82: 0.00000,  81: 0.00000,  80: 0.00000,  79: 0.00000,  78: 0.00000,  77: 0.00000,  76: 0.00000,  75: 0.00000,
                 74: 0.00000,  73: 0.00000,  72: 0.00000,  71: 0.00000,  70: 0.00000,  69: 0.00000,  68: 0.00000,  67: 0.00000,
                 66: 0.00000,  65: 0.00000,  64: 0.00000,  63: 0.00000,  62: 0.00000,  61: 0.00000,  60: 0.00000,  59: 0.00000,
                 58: 0.00000,  57: 0.00000,  56: 0.00000,  55: 0.00000,  54: 0.00000,  53: 0.00000,  52: 0.00000,  51: 0.00000,
                 50: 0.00000,  49: 0.00000,  48: 0.00000,  47: 0.00000,  46: 0.00000,  45: 0.00000,  44: 0.00000,  43: 0.00000,
                 42: 0.00000,  41: 0.00000,  40: 0.00000,  39: 0.00000,  38: 0.00000,  37: 0.00000,  36: 0.00000,  35: 0.00000,
                 34: 0.00000,  33: 0.00000,  32: 0.00000,  31: 0.00000,  30: 0.00000,  29: 0.00000,  28: 0.00000,  27: 0.00000,
                 26: 0.00000,  25: 0.00000,  24: 0.00000,  23: 0.00000,  22: 0.00000,  21: 0.00000,  20: 0.00000,  19: 0.00000,
                 18: 0.00000,  17: 0.00000,  16: 0.00000,  15: 0.00000,  14: 0.00000,  13: 0.00000,  12: 0.00000,  11: 0.00000,
                 10: 0.00000,   9: 0.00000,   8: 0.00000,   7: 0.00000,   6: 0.00000,   5: 0.00000,   4: 0.00000,   3: 0.00000,
                  2: 0.00000,   1: 0.00000
   356 |      | 346: 0.00000, 345: 0.00000, 344: 0.00000, 343: 0.00000, 342: 0.00000, 341: 0.00000, 340: 0.00000, 339: 0.00000,
                338: 0.00000, 337: 0.00000, 336: 0.00000, 335: 0.00000, 334: 0.00000, 333: 0.00000, 332: 0.00000, 331: 0.00000,
                330: 0.00000, 329: 0.00000, 328: 0.00000, 327: 0.00000, 326: 0.00000, 325: 0.00000, 324: 0.00000, 323: 0.00000,
                322: 0.00000, 321: 0.00000, 320: 0.00000, 319: 0.00000, 318: 0.00000, 317: 0.00000, 316: 0.00000, 315: 0.00000,
                314: 0.00000, 313: 0.00000, 312: 0.00000, 311: 0.00000, 310: 0.00000, 309: 0.00000, 308: 0.00000, 307: 0.00000,
                306: 0.00000, 305: 0.00000, 304: 0.00000, 303: 0.00000, 302: 0.00000, 301: 0.00000, 300: 0.00000, 299: 0.00000,
                298: 0.00000, 297: 0.00000, 296: 0.00000, 295: 0.00000, 294: 0.00000, 293: 0.00000, 292: 0.00000, 291: 0.00000,
                290: 0.00000, 289: 0.00000, 288: 0.00000, 287: 0.00000, 286: 0.00000, 285: 0.00000, 284: 0.00000, 283: 0.00000,
                282: 0.00000, 281: 0.00000, 280: 0.00000, 279: 0.00000, 278: 0.00000, 277: 0.00000, 276: 0.00000, 275: 0.00000,
                274: 0.00000, 273: 0.00000, 272: 0.00000, 271: 0.00000, 270: 0.00000, 269: 0.00000, 268: 0.00000, 267: 0.00000,
                266: 0.00000, 265: 0.00000, 264: 0.00000, 263: 0.00000, 262: 0.00000, 261: 0.00000, 260: 0.00000, 259: 0.00000,
                258: 0.00000, 257: 0.00000, 256: 0.00000, 255: 0.00000, 254: 0.00000, 253: 0.00000, 252: 0.00000, 251: 0.00000,
                250: 0.00000, 249: 0.00000, 248: 0.00000, 247: 0.00000, 246: 0.00000, 245: 0.00000, 244: 0.00000, 243: 0.00000,
                242: 0.00000, 241: 0.00000, 240: 0.00000, 239: 0.00000, 238: 0.00000, 237: 0.00000, 236: 0.00000, 235: 0.00000,
                234: 0.00000, 233: 0.00000, 232: 0.00000, 231: 0.00000, 230: 0.00000, 229: 0.00000, 228: 0.00000, 227: 0.00000,
                226: 0.00000, 225: 0.00000, 224: 0.00000, 223: 0.00000, 222: 0.00000, 221: 0.00000, 220: 0.00000, 219: 0.00000,
                218: 0.00000, 217: 0.00000, 216: 0.00000, 215: 0.00000, 214: 0.00000, 213: 0.00000, 212: 0.00000, 211: 0.00000,
                210: 0.00000, 209: 0.00000, 208: 0.00000, 207: 0.00000, 206: 0.00000, 205: 0.00000, 204: 0.00000, 203: 0.00000,
                202: 0.00000, 201: 0.00000, 200: 0.00000, 199: 0.00000, 198: 0.00000, 197: 0.00000, 196: 0.00000, 195: 0.00000,
                194: 0.00000, 193: 0.00000, 192: 0.00000, 191: 0.00000, 190: 0.00000, 189: 0.00000, 188: 0.00000, 187: 0.00000,
                186: 0.00000, 185: 0.00000, 184: 0.00000, 183: 0.00000, 182: 0.00000, 181: 0.00000, 180: 0.00000, 179: 0.00000,
                178: 0.00000, 177: 0.00000, 176: 0.00000, 175: 0.00000, 174: 0.00000, 173: 0.00000, 172: 0.00000, 171: 0.00000,
                170: 0.00000, 169: 0.00000, 168: 0.00000, 167: 0.00000, 166: 0.00000, 165: 0.00000, 164: 0.00000, 163: 0.00000,
                162: 0.00000, 161: 0.00000, 160: 0.00000, 159: 0.00000, 158: 0.00000, 157: 0.00000, 156: 0.00000, 155: 0.00000,
                154: 0.00000, 153: 0.00000, 152: 0.00000, 151: 0.00000, 150: 0.00000, 149: 0.00000, 148: 0.00000, 147: 0.00000,
                146: 0.00000, 145: 0.00000, 144: 0.00000, 143: 0.00000, 142: 0.00000, 141: 0.00000, 140: 0.00000, 139: 0.00000,
                138: 0.00000, 137: 0.00000, 136: 0.00000, 135: 0.00000, 134: 0.00000, 133: 0.00000, 132: 0.00000, 131: 0.00000,
                130: 0.00000, 129: 0.00000, 128: 0.00000, 127: 0.00000, 126: 0.00000, 125: 0.00000, 124: 0.00000, 123: 0.00000,
                122: 0.00000, 121: 0.00000, 120: 0.00000, 119: 0.00000, 118: 0.00000, 117: 0.00000, 116: 0.00000, 115: 0.00000,
                114: 0.00000, 113: 0.00000, 112: 0.00000, 111: 0.00000, 110: 0.00000, 109: 0.00000, 108: 0.00000, 107: 0.00000,
                106: 0.00000, 105: 0.00000, 104: 0.00000, 103: 0.00000, 102: 0.00000, 101: 0.00000, 100: 0.00000,  99: 0.00000,
                 98: 0.00000,  97: 0.00000,  96: 0.00000,  95: 0.00000,  94: 0.00000,  93: 0.00000,  92: 0.00000,  91: 0.00000,
                 90: 0.00000,  89: 0.00000,  88: 0.00000,  87: 0.00000,  86: 0.00000,  85: 0.00000,  84: 0.00000,  83: 0.00000,
                 82: 0.00000,  81: 0.00000,  80: 0.00000,  79: 0.00000,  78: 0.00000,  77: 0.00000,  76: 0.00000,  75: 0.00000,
                 74: 0.00000,  73: 0.00000,  72: 0.00000,  71: 0.00000,  70: 0.00000,  69: 0.00000,  68: 0.00000,  67: 0.00000,
                 66: 0.00000,  65: 0.00000,  64: 0.00000,  63: 0.00000,  62: 0.00000,  61: 0.00000,  60: 0.00000,  59: 0.00000,
                 58: 0.00000,  57: 0.00000,  56: 0.00000,  55: 0.00000,  54: 0.00000,  53: 0.00000,  52: 0.00000,  51: 0.00000,
                 50: 0.00000,  49: 0.00000,  48: 0.00000,  47: 0.00000,  46: 0.00000,  45: 0.00000,  44: 0.00000,  43: 0.00000,
                 42: 0.00000,  41: 0.00000,  40: 0.00000,  39: 0.00000,  38: 0.00000,  37: 0.00000,  36: 0.00000,  35: 0.00000,
                 34: 0.00000,  33: 0.00000,  32: 0.00000,  31: 0.00000,  30: 0.00000,  29: 0.00000,  28: 0.00000,  27: 0.00000,
                 26: 0.00000,  25: 0.00000,  24: 0.00000,  23: 0.00000,  22: 0.00000,  21: 0.00000,  20: 0.00000,  19: 0.00000,
                 18: 0.00000,  17: 0.00000,  16: 0.00000,  15: 0.00000,  14: 0.00000,  13: 0.00000,  12: 0.00000,  11: 0.00000,
                 10: 0.00000,   9: 0.00000,   8: 0.00000,   7: 0.00000,   6: 0.00000,   5: 0.00000,   4: 0.00000,   3: 0.00000,
                  2: 0.00000,   1: 0.00000
   357 |      | 346: 0.00000, 345: 0.00000, 344: 0.00000, 343: 0.00000, 342: 0.00000, 341: 0.00000, 340: 0.00000, 339: 0.00000,
                338: 0.00000, 337: 0.00000, 336: 0.00000, 335: 0.00000, 334: 0.00000, 333: 0.00000, 332: 0.00000, 331: 0.00000,
                330: 0.00000, 329: 0.00000, 328: 0.00000, 327: 0.00000, 326: 0.00000, 325: 0.00000, 324: 0.00000, 323: 0.00000,
                322: 0.00000, 321: 0.00000, 320: 0.00000, 319: 0.00000, 318: 0.00000, 317: 0.00000, 316: 0.00000, 315: 0.00000,
                314: 0.00000, 313: 0.00000, 312: 0.00000, 311: 0.00000, 310: 0.00000, 309: 0.00000, 308: 0.00000, 307: 0.00000,
                306: 0.00000, 305: 0.00000, 304: 0.00000, 303: 0.00000, 302: 0.00000, 301: 0.00000, 300: 0.00000, 299: 0.00000,
                298: 0.00000, 297: 0.00000, 296: 0.00000, 295: 0.00000, 294: 0.00000, 293: 0.00000, 292: 0.00000, 291: 0.00000,
                290: 0.00000, 289: 0.00000, 288: 0.00000, 287: 0.00000, 286: 0.00000, 285: 0.00000, 284: 0.00000, 283: 0.00000,
                282: 0.00000, 281: 0.00000, 280: 0.00000, 279: 0.00000, 278: 0.00000, 277: 0.00000, 276: 0.00000, 275: 0.00000,
                274: 0.00000, 273: 0.00000, 272: 0.00000, 271: 0.00000, 270: 0.00000, 269: 0.00000, 268: 0.00000, 267: 0.00000,
                266: 0.00000, 265: 0.00000, 264: 0.00000, 263: 0.00000, 262: 0.00000, 261: 0.00000, 260: 0.00000, 259: 0.00000,
                258: 0.00000, 257: 0.00000, 256: 0.00000, 255: 0.00000, 254: 0.00000, 253: 0.00000, 252: 0.00000, 251: 0.00000,
                250: 0.00000, 249: 0.00000, 248: 0.00000, 247: 0.00000, 246: 0.00000, 245: 0.00000, 244: 0.00000, 243: 0.00000,
                242: 0.00000, 241: 0.00000, 240: 0.00000, 239: 0.00000, 238: 0.00000, 237: 0.00000, 236: 0.00000, 235: 0.00000,
                234: 0.00000, 233: 0.00000, 232: 0.00000, 231: 0.00000, 230: 0.00000, 229: 0.00000, 228: 0.00000, 227: 0.00000,
                226: 0.00000, 225: 0.00000, 224: 0.00000, 223: 0.00000, 222: 0.00000, 221: 0.00000, 220: 0.00000, 219: 0.00000,
                218: 0.00000, 217: 0.00000, 216: 0.00000, 215: 0.00000, 214: 0.00000, 213: 0.00000, 212: 0.00000, 211: 0.00000,
                210: 0.00000, 209: 0.00000, 208: 0.00000, 207: 0.00000, 206: 0.00000, 205: 0.00000, 204: 0.00000, 203: 0.00000,
                202: 0.00000, 201: 0.00000, 200: 0.00000, 199: 0.00000, 198: 0.00000, 197: 0.00000, 196: 0.00000, 195: 0.00000,
                194: 0.00000, 193: 0.00000, 192: 0.00000, 191: 0.00000, 190: 0.00000, 189: 0.00000, 188: 0.00000, 187: 0.00000,
                186: 0.00000, 185: 0.00000, 184: 0.00000, 183: 0.00000, 182: 0.00000, 181: 0.00000, 180: 0.00000, 179: 0.00000,
                178: 0.00000, 177: 0.00000, 176: 0.00000, 175: 0.00000, 174: 0.00000, 173: 0.00000, 172: 0.00000, 171: 0.00000,
                170: 0.00000, 169: 0.00000, 168: 0.00000, 167: 0.00000, 166: 0.00000, 165: 0.00000, 164: 0.00000, 163: 0.00000,
                162: 0.00000, 161: 0.00000, 160: 0.00000, 159: 0.00000, 158: 0.00000, 157: 0.00000, 156: 0.00000, 155: 0.00000,
                154: 0.00000, 153: 0.00000, 152: 0.00000, 151: 0.00000, 150: 0.00000, 149: 0.00000, 148: 0.00000, 147: 0.00000,
                146: 0.00000, 145: 0.00000, 144: 0.00000, 143: 0.00000, 142: 0.00000, 141: 0.00000, 140: 0.00000, 139: 0.00000,
                138: 0.00000, 137: 0.00000, 136: 0.00000, 135: 0.00000, 134: 0.00000, 133: 0.00000, 132: 0.00000, 131: 0.00000,
                130: 0.00000, 129: 0.00000, 128: 0.00000, 127: 0.00000, 126: 0.00000, 125: 0.00000, 124: 0.00000, 123: 0.00000,
                122: 0.00000, 121: 0.00000, 120: 0.00000, 119: 0.00000, 118: 0.00000, 117: 0.00000, 116: 0.00000, 115: 0.00000,
                114: 0.00000, 113: 0.00000, 112: 0.00000, 111: 0.00000, 110: 0.00000, 109: 0.00000, 108: 0.00000, 107: 0.00000,
                106: 0.00000, 105: 0.00000, 104: 0.00000, 103: 0.00000, 102: 0.00000, 101: 0.00000, 100: 0.00000,  99: 0.00000,
                 98: 0.00000,  97: 0.00000,  96: 0.00000,  95: 0.00000,  94: 0.00000,  93: 0.00000,  92: 0.00000,  91: 0.00000,
                 90: 0.00000,  89: 0.00000,  88: 0.00000,  87: 0.00000,  86: 0.00000,  85: 0.00000,  84: 0.00000,  83: 0.00000,
                 82: 0.00000,  81: 0.00000,  80: 0.00000,  79: 0.00000,  78: 0.00000,  77: 0.00000,  76: 0.00000,  75: 0.00000,
                 74: 0.00000,  73: 0.00000,  72: 0.00000,  71: 0.00000,  70: 0.00000,  69: 0.00000,  68: 0.00000,  67: 0.00000,
                 66: 0.00000,  65: 0.00000,  64: 0.00000,  63: 0.00000,  62: 0.00000,  61: 0.00000,  60: 0.00000,  59: 0.00000,
                 58: 0.00000,  57: 0.00000,  56: 0.00000,  55: 0.00000,  54: 0.00000,  53: 0.00000,  52: 0.00000,  51: 0.00000,
                 50: 0.00000,  49: 0.00000,  48: 0.00000,  47: 0.00000,  46: 0.00000,  45: 0.00000,  44: 0.00000,  43: 0.00000,
                 42: 0.00000,  41: 0.00000,  40: 0.00000,  39: 0.00000,  38: 0.00000,  37: 0.00000,  36: 0.00000,  35: 0.00000,
                 34: 0.00000,  33: 0.00000,  32: 0.00000,  31: 0.00000,  30: 0.00000,  29: 0.00000,  28: 0.00000,  27: 0.00000,
                 26: 0.00000,  25: 0.00000,  24: 0.00000,  23: 0.00000,  22: 0.00000,  21: 0.00000,  20: 0.00000,  19: 0.00000,
                 18: 0.00000,  17: 0.00000,  16: 0.00000,  15: 0.00000,  14: 0.00000,  13: 0.00000,  12: 0.00000,  11: 0.00000,
                 10: 0.00000,   9: 0.00000,   8: 0.00000,   7: 0.00000,   6: 0.00000,   5: 0.00000,   4: 0.00000,   3: 0.00000,
                  2: 0.00000,   1: 0.00000
   358 |      | 346: 0.00000, 345: 0.00000, 344: 0.00000, 343: 0.00000, 342: 0.00000, 341: 0.00000, 340: 0.00000, 339: 0.00000,
                338: 0.00000, 337: 0.00000, 336: 0.00000, 335: 0.00000, 334: 0.00000, 333: 0.00000, 332: 0.00000, 331: 0.00000,
                330: 0.00000, 329: 0.00000, 328: 0.00000, 327: 0.00000, 326: 0.00000, 325: 0.00000, 324: 0.00000, 323: 0.00000,
                322: 0.00000, 321: 0.00000, 320: 0.00000, 319: 0.00000, 318: 0.00000, 317: 0.00000, 316: 0.00000, 315: 0.00000,
                314: 0.00000, 313: 0.00000, 312: 0.00000, 311: 0.00000, 310: 0.00000, 309: 0.00000, 308: 0.00000, 307: 0.00000,
                306: 0.00000, 305: 0.00000, 304: 0.00000, 303: 0.00000, 302: 0.00000, 301: 0.00000, 300: 0.00000, 299: 0.00000,
                298: 0.00000, 297: 0.00000, 296: 0.00000, 295: 0.00000, 294: 0.00000, 293: 0.00000, 292: 0.00000, 291: 0.00000,
                290: 0.00000, 289: 0.00000, 288: 0.00000, 287: 0.00000, 286: 0.00000, 285: 0.00000, 284: 0.00000, 283: 0.00000,
